digraph Tree {
node [shape=box, style="filled, rounded", color="black", fontname=helvetica] ;
edge [fontname=helvetica] ;
0 [label=<throttlePct &le; 0.12<br/>gini = 0.609<br/>samples = 47894<br/>value = [4575, 5705, 10527, 27087]<br/>class = abnormal>, fillcolor="#eda7f3"] ;
1 [label=<rollRate &le; -0.005<br/>gini = 0.097<br/>samples = 27957<br/>value = [396, 745, 262, 26554]<br/>class = abnormal>, fillcolor="#d943e6"] ;
0 -> 1 [labeldistance=2.5, labelangle=45, headlabel="True"] ;
2 [label=<yaw &le; -3.221<br/>gini = 0.637<br/>samples = 1267<br/>value = [372, 634, 196, 65]<br/>class = noise>, fillcolor="#c9f7c5"] ;
1 -> 2 ;
3 [label=<roll &le; -11.964<br/>gini = 0.555<br/>samples = 812<br/>value = [323, 431, 55, 3]<br/>class = noise>, fillcolor="#d6f9d3"] ;
2 -> 3 ;
4 [label=<yawRate &le; -3.832<br/>gini = 0.513<br/>samples = 356<br/>value = [201, 146, 8, 1]<br/>class = normal>, fillcolor="#f8decb"] ;
3 -> 4 ;
5 [label=<rollRate &le; -4.609<br/>gini = 0.439<br/>samples = 230<br/>value = [156, 73, 1, 0]<br/>class = normal>, fillcolor="#f1bc96"] ;
4 -> 5 ;
6 [label=<pitchRate &le; 3.573<br/>gini = 0.299<br/>samples = 131<br/>value = [107, 24, 0, 0]<br/>class = normal>, fillcolor="#eb9d65"] ;
5 -> 6 ;
7 [label=<pitch &le; 1.566<br/>gini = 0.265<br/>samples = 127<br/>value = [107, 20, 0, 0]<br/>class = normal>, fillcolor="#ea995e"] ;
6 -> 7 ;
8 [label=<pitchRate &le; -1.711<br/>gini = 0.188<br/>samples = 114<br/>value = [102, 12, 0, 0]<br/>class = normal>, fillcolor="#e89050"] ;
7 -> 8 ;
9 [label=<yawRate &le; -4.76<br/>gini = 0.071<br/>samples = 81<br/>value = [78, 3, 0, 0]<br/>class = normal>, fillcolor="#e68641"] ;
8 -> 9 ;
10 [label=<pitch &le; -0.558<br/>gini = 0.029<br/>samples = 69<br/>value = [68, 1, 0, 0]<br/>class = normal>, fillcolor="#e5833c"] ;
9 -> 10 ;
11 [label=<gini = 0.0<br/>samples = 64<br/>value = [64, 0, 0, 0]<br/>class = normal>, fillcolor="#e58139"] ;
10 -> 11 ;
12 [label=<pitch &le; -0.115<br/>gini = 0.32<br/>samples = 5<br/>value = [4, 1, 0, 0]<br/>class = normal>, fillcolor="#eca06a"] ;
10 -> 12 ;
13 [label=<gini = 0.0<br/>samples = 1<br/>value = [0, 1, 0, 0]<br/>class = noise>, fillcolor="#47e539"] ;
12 -> 13 ;
14 [label=<gini = 0.0<br/>samples = 4<br/>value = [4, 0, 0, 0]<br/>class = normal>, fillcolor="#e58139"] ;
12 -> 14 ;
15 [label=<yaw &le; -6.866<br/>gini = 0.278<br/>samples = 12<br/>value = [10, 2, 0, 0]<br/>class = normal>, fillcolor="#ea9a61"] ;
9 -> 15 ;
16 [label=<pitch &le; -5.338<br/>gini = 0.165<br/>samples = 11<br/>value = [10, 1, 0, 0]<br/>class = normal>, fillcolor="#e88e4d"] ;
15 -> 16 ;
17 [label=<gini = 0.0<br/>samples = 10<br/>value = [10, 0, 0, 0]<br/>class = normal>, fillcolor="#e58139"] ;
16 -> 17 ;
18 [label=<gini = 0.0<br/>samples = 1<br/>value = [0, 1, 0, 0]<br/>class = noise>, fillcolor="#47e539"] ;
16 -> 18 ;
19 [label=<gini = 0.0<br/>samples = 1<br/>value = [0, 1, 0, 0]<br/>class = noise>, fillcolor="#47e539"] ;
15 -> 19 ;
20 [label=<roll &le; -14.647<br/>gini = 0.397<br/>samples = 33<br/>value = [24, 9, 0, 0]<br/>class = normal>, fillcolor="#efb083"] ;
8 -> 20 ;
21 [label=<yawRate &le; -8.315<br/>gini = 0.293<br/>samples = 28<br/>value = [23, 5, 0, 0]<br/>class = normal>, fillcolor="#eb9c64"] ;
20 -> 21 ;
22 [label=<gini = 0.0<br/>samples = 15<br/>value = [15, 0, 0, 0]<br/>class = normal>, fillcolor="#e58139"] ;
21 -> 22 ;
23 [label=<rollRate &le; -8.723<br/>gini = 0.473<br/>samples = 13<br/>value = [8, 5, 0, 0]<br/>class = normal>, fillcolor="#f5d0b5"] ;
21 -> 23 ;
24 [label=<gini = 0.0<br/>samples = 6<br/>value = [6, 0, 0, 0]<br/>class = normal>, fillcolor="#e58139"] ;
23 -> 24 ;
25 [label=<throttlePct &le; 0.067<br/>gini = 0.408<br/>samples = 7<br/>value = [2, 5, 0, 0]<br/>class = noise>, fillcolor="#91ef88"] ;
23 -> 25 ;
26 [label=<yaw &le; -19.397<br/>gini = 0.278<br/>samples = 6<br/>value = [1, 5, 0, 0]<br/>class = noise>, fillcolor="#6cea61"] ;
25 -> 26 ;
27 [label=<gini = 0.0<br/>samples = 1<br/>value = [1, 0, 0, 0]<br/>class = normal>, fillcolor="#e58139"] ;
26 -> 27 ;
28 [label=<gini = 0.0<br/>samples = 5<br/>value = [0, 5, 0, 0]<br/>class = noise>, fillcolor="#47e539"] ;
26 -> 28 ;
29 [label=<gini = 0.0<br/>samples = 1<br/>value = [1, 0, 0, 0]<br/>class = normal>, fillcolor="#e58139"] ;
25 -> 29 ;
30 [label=<climbRate &le; -0.57<br/>gini = 0.32<br/>samples = 5<br/>value = [1, 4, 0, 0]<br/>class = noise>, fillcolor="#75ec6a"] ;
20 -> 30 ;
31 [label=<gini = 0.0<br/>samples = 1<br/>value = [1, 0, 0, 0]<br/>class = normal>, fillcolor="#e58139"] ;
30 -> 31 ;
32 [label=<gini = 0.0<br/>samples = 4<br/>value = [0, 4, 0, 0]<br/>class = noise>, fillcolor="#47e539"] ;
30 -> 32 ;
33 [label=<rollRate &le; -11.254<br/>gini = 0.473<br/>samples = 13<br/>value = [5, 8, 0, 0]<br/>class = noise>, fillcolor="#baf5b5"] ;
7 -> 33 ;
34 [label=<gini = 0.0<br/>samples = 2<br/>value = [2, 0, 0, 0]<br/>class = normal>, fillcolor="#e58139"] ;
33 -> 34 ;
35 [label=<climbRate &le; -0.285<br/>gini = 0.397<br/>samples = 11<br/>value = [3, 8, 0, 0]<br/>class = noise>, fillcolor="#8cef83"] ;
33 -> 35 ;
36 [label=<yawRate &le; -8.356<br/>gini = 0.48<br/>samples = 5<br/>value = [3, 2, 0, 0]<br/>class = normal>, fillcolor="#f6d5bd"] ;
35 -> 36 ;
37 [label=<gini = 0.0<br/>samples = 2<br/>value = [0, 2, 0, 0]<br/>class = noise>, fillcolor="#47e539"] ;
36 -> 37 ;
38 [label=<gini = 0.0<br/>samples = 3<br/>value = [3, 0, 0, 0]<br/>class = normal>, fillcolor="#e58139"] ;
36 -> 38 ;
39 [label=<gini = 0.0<br/>samples = 6<br/>value = [0, 6, 0, 0]<br/>class = noise>, fillcolor="#47e539"] ;
35 -> 39 ;
40 [label=<gini = 0.0<br/>samples = 4<br/>value = [0, 4, 0, 0]<br/>class = noise>, fillcolor="#47e539"] ;
6 -> 40 ;
41 [label=<yaw &le; -14.83<br/>gini = 0.51<br/>samples = 99<br/>value = [49, 49, 1, 0]<br/>class = normal>, fillcolor="#ffffff"] ;
5 -> 41 ;
42 [label=<pitchRate &le; -4.321<br/>gini = 0.381<br/>samples = 39<br/>value = [29, 10, 0, 0]<br/>class = normal>, fillcolor="#eeac7d"] ;
41 -> 42 ;
43 [label=<throttlePct &le; -0.646<br/>gini = 0.165<br/>samples = 22<br/>value = [20, 2, 0, 0]<br/>class = normal>, fillcolor="#e88e4d"] ;
42 -> 43 ;
44 [label=<gini = 0.0<br/>samples = 1<br/>value = [0, 1, 0, 0]<br/>class = noise>, fillcolor="#47e539"] ;
43 -> 44 ;
45 [label=<pitchRate &le; -6.359<br/>gini = 0.091<br/>samples = 21<br/>value = [20, 1, 0, 0]<br/>class = normal>, fillcolor="#e68743"] ;
43 -> 45 ;
46 [label=<gini = 0.0<br/>samples = 17<br/>value = [17, 0, 0, 0]<br/>class = normal>, fillcolor="#e58139"] ;
45 -> 46 ;
47 [label=<pitch &le; -11.323<br/>gini = 0.375<br/>samples = 4<br/>value = [3, 1, 0, 0]<br/>class = normal>, fillcolor="#eeab7b"] ;
45 -> 47 ;
48 [label=<gini = 0.0<br/>samples = 3<br/>value = [3, 0, 0, 0]<br/>class = normal>, fillcolor="#e58139"] ;
47 -> 48 ;
49 [label=<gini = 0.0<br/>samples = 1<br/>value = [0, 1, 0, 0]<br/>class = noise>, fillcolor="#47e539"] ;
47 -> 49 ;
50 [label=<pitch &le; -7.251<br/>gini = 0.498<br/>samples = 17<br/>value = [9, 8, 0, 0]<br/>class = normal>, fillcolor="#fcf1e9"] ;
42 -> 50 ;
51 [label=<rollRate &le; -2.89<br/>gini = 0.375<br/>samples = 12<br/>value = [9, 3, 0, 0]<br/>class = normal>, fillcolor="#eeab7b"] ;
50 -> 51 ;
52 [label=<pitch &le; -21.934<br/>gini = 0.5<br/>samples = 6<br/>value = [3, 3, 0, 0]<br/>class = normal>, fillcolor="#ffffff"] ;
51 -> 52 ;
53 [label=<gini = 0.0<br/>samples = 3<br/>value = [3, 0, 0, 0]<br/>class = normal>, fillcolor="#e58139"] ;
52 -> 53 ;
54 [label=<gini = 0.0<br/>samples = 3<br/>value = [0, 3, 0, 0]<br/>class = noise>, fillcolor="#47e539"] ;
52 -> 54 ;
55 [label=<gini = 0.0<br/>samples = 6<br/>value = [6, 0, 0, 0]<br/>class = normal>, fillcolor="#e58139"] ;
51 -> 55 ;
56 [label=<gini = 0.0<br/>samples = 5<br/>value = [0, 5, 0, 0]<br/>class = noise>, fillcolor="#47e539"] ;
50 -> 56 ;
57 [label=<yawRate &le; -12.156<br/>gini = 0.466<br/>samples = 60<br/>value = [20, 39, 1, 0]<br/>class = noise>, fillcolor="#a8f3a1"] ;
41 -> 57 ;
58 [label=<climbRate &le; -0.486<br/>gini = 0.18<br/>samples = 10<br/>value = [9, 1, 0, 0]<br/>class = normal>, fillcolor="#e88f4f"] ;
57 -> 58 ;
59 [label=<gini = 0.0<br/>samples = 1<br/>value = [0, 1, 0, 0]<br/>class = noise>, fillcolor="#47e539"] ;
58 -> 59 ;
60 [label=<gini = 0.0<br/>samples = 9<br/>value = [9, 0, 0, 0]<br/>class = normal>, fillcolor="#e58139"] ;
58 -> 60 ;
61 [label=<climbRate &le; -0.515<br/>gini = 0.374<br/>samples = 50<br/>value = [11, 38, 1, 0]<br/>class = noise>, fillcolor="#80ed76"] ;
57 -> 61 ;
62 [label=<pitchRate &le; -3.742<br/>gini = 0.346<br/>samples = 9<br/>value = [7, 2, 0, 0]<br/>class = normal>, fillcolor="#eca572"] ;
61 -> 62 ;
63 [label=<gini = 0.0<br/>samples = 7<br/>value = [7, 0, 0, 0]<br/>class = normal>, fillcolor="#e58139"] ;
62 -> 63 ;
64 [label=<gini = 0.0<br/>samples = 2<br/>value = [0, 2, 0, 0]<br/>class = noise>, fillcolor="#47e539"] ;
62 -> 64 ;
65 [label=<climbRate &le; 0.784<br/>gini = 0.219<br/>samples = 41<br/>value = [4, 36, 1, 0]<br/>class = noise>, fillcolor="#60e954"] ;
61 -> 65 ;
66 [label=<pitch &le; -23.527<br/>gini = 0.145<br/>samples = 39<br/>value = [2, 36, 1, 0]<br/>class = noise>, fillcolor="#56e749"] ;
65 -> 66 ;
67 [label=<pitchRate &le; -6.606<br/>gini = 0.444<br/>samples = 3<br/>value = [2, 1, 0, 0]<br/>class = normal>, fillcolor="#f2c09c"] ;
66 -> 67 ;
68 [label=<gini = 0.0<br/>samples = 2<br/>value = [2, 0, 0, 0]<br/>class = normal>, fillcolor="#e58139"] ;
67 -> 68 ;
69 [label=<gini = 0.0<br/>samples = 1<br/>value = [0, 1, 0, 0]<br/>class = noise>, fillcolor="#47e539"] ;
67 -> 69 ;
70 [label=<throttlePct &le; -0.772<br/>gini = 0.054<br/>samples = 36<br/>value = [0, 35, 1, 0]<br/>class = noise>, fillcolor="#4ce63f"] ;
66 -> 70 ;
71 [label=<gini = 0.0<br/>samples = 1<br/>value = [0, 0, 1, 0]<br/>class = mild>, fillcolor="#399de5"] ;
70 -> 71 ;
72 [label=<gini = 0.0<br/>samples = 35<br/>value = [0, 35, 0, 0]<br/>class = noise>, fillcolor="#47e539"] ;
70 -> 72 ;
73 [label=<gini = 0.0<br/>samples = 2<br/>value = [2, 0, 0, 0]<br/>class = normal>, fillcolor="#e58139"] ;
65 -> 73 ;
74 [label=<pitchRate &le; -7.664<br/>gini = 0.534<br/>samples = 126<br/>value = [45, 73, 7, 1]<br/>class = noise>, fillcolor="#bff6bb"] ;
4 -> 74 ;
75 [label=<pitch &le; -8.674<br/>gini = 0.469<br/>samples = 40<br/>value = [25, 15, 0, 0]<br/>class = normal>, fillcolor="#f5cdb0"] ;
74 -> 75 ;
76 [label=<rollRate &le; -4.01<br/>gini = 0.165<br/>samples = 22<br/>value = [20, 2, 0, 0]<br/>class = normal>, fillcolor="#e88e4d"] ;
75 -> 76 ;
77 [label=<gini = 0.0<br/>samples = 17<br/>value = [17, 0, 0, 0]<br/>class = normal>, fillcolor="#e58139"] ;
76 -> 77 ;
78 [label=<pitch &le; -16.648<br/>gini = 0.48<br/>samples = 5<br/>value = [3, 2, 0, 0]<br/>class = normal>, fillcolor="#f6d5bd"] ;
76 -> 78 ;
79 [label=<gini = 0.0<br/>samples = 2<br/>value = [2, 0, 0, 0]<br/>class = normal>, fillcolor="#e58139"] ;
78 -> 79 ;
80 [label=<roll &le; -14.502<br/>gini = 0.444<br/>samples = 3<br/>value = [1, 2, 0, 0]<br/>class = noise>, fillcolor="#a3f29c"] ;
78 -> 80 ;
81 [label=<gini = 0.0<br/>samples = 2<br/>value = [0, 2, 0, 0]<br/>class = noise>, fillcolor="#47e539"] ;
80 -> 81 ;
82 [label=<gini = 0.0<br/>samples = 1<br/>value = [1, 0, 0, 0]<br/>class = normal>, fillcolor="#e58139"] ;
80 -> 82 ;
83 [label=<yaw &le; -14.834<br/>gini = 0.401<br/>samples = 18<br/>value = [5, 13, 0, 0]<br/>class = noise>, fillcolor="#8eef85"] ;
75 -> 83 ;
84 [label=<yawRate &le; 0.273<br/>gini = 0.32<br/>samples = 5<br/>value = [4, 1, 0, 0]<br/>class = normal>, fillcolor="#eca06a"] ;
83 -> 84 ;
85 [label=<gini = 0.0<br/>samples = 4<br/>value = [4, 0, 0, 0]<br/>class = normal>, fillcolor="#e58139"] ;
84 -> 85 ;
86 [label=<gini = 0.0<br/>samples = 1<br/>value = [0, 1, 0, 0]<br/>class = noise>, fillcolor="#47e539"] ;
84 -> 86 ;
87 [label=<climbRate &le; -1.035<br/>gini = 0.142<br/>samples = 13<br/>value = [1, 12, 0, 0]<br/>class = noise>, fillcolor="#56e749"] ;
83 -> 87 ;
88 [label=<gini = 0.0<br/>samples = 1<br/>value = [1, 0, 0, 0]<br/>class = normal>, fillcolor="#e58139"] ;
87 -> 88 ;
89 [label=<gini = 0.0<br/>samples = 12<br/>value = [0, 12, 0, 0]<br/>class = noise>, fillcolor="#47e539"] ;
87 -> 89 ;
90 [label=<yaw &le; -11.7<br/>gini = 0.484<br/>samples = 86<br/>value = [20, 58, 7, 1]<br/>class = noise>, fillcolor="#95f08d"] ;
74 -> 90 ;
91 [label=<pitch &le; -16.035<br/>gini = 0.522<br/>samples = 47<br/>value = [18, 27, 1, 1]<br/>class = noise>, fillcolor="#c6f7c2"] ;
90 -> 91 ;
92 [label=<roll &le; -13.334<br/>gini = 0.298<br/>samples = 11<br/>value = [9, 2, 0, 0]<br/>class = normal>, fillcolor="#eb9d65"] ;
91 -> 92 ;
93 [label=<pitchRate &le; -4.359<br/>gini = 0.18<br/>samples = 10<br/>value = [9, 1, 0, 0]<br/>class = normal>, fillcolor="#e88f4f"] ;
92 -> 93 ;
94 [label=<gini = 0.0<br/>samples = 1<br/>value = [0, 1, 0, 0]<br/>class = noise>, fillcolor="#47e539"] ;
93 -> 94 ;
95 [label=<gini = 0.0<br/>samples = 9<br/>value = [9, 0, 0, 0]<br/>class = normal>, fillcolor="#e58139"] ;
93 -> 95 ;
96 [label=<gini = 0.0<br/>samples = 1<br/>value = [0, 1, 0, 0]<br/>class = noise>, fillcolor="#47e539"] ;
92 -> 96 ;
97 [label=<roll &le; -21.677<br/>gini = 0.454<br/>samples = 36<br/>value = [9, 25, 1, 1]<br/>class = noise>, fillcolor="#92f08a"] ;
91 -> 97 ;
98 [label=<rollRate &le; -4.36<br/>gini = 0.278<br/>samples = 6<br/>value = [5, 1, 0, 0]<br/>class = normal>, fillcolor="#ea9a61"] ;
97 -> 98 ;
99 [label=<gini = 0.0<br/>samples = 5<br/>value = [5, 0, 0, 0]<br/>class = normal>, fillcolor="#e58139"] ;
98 -> 99 ;
100 [label=<gini = 0.0<br/>samples = 1<br/>value = [0, 1, 0, 0]<br/>class = noise>, fillcolor="#47e539"] ;
98 -> 100 ;
101 [label=<yawRate &le; -3.569<br/>gini = 0.34<br/>samples = 30<br/>value = [4, 24, 1, 1]<br/>class = noise>, fillcolor="#71eb67"] ;
97 -> 101 ;
102 [label=<gini = 0.0<br/>samples = 2<br/>value = [2, 0, 0, 0]<br/>class = normal>, fillcolor="#e58139"] ;
101 -> 102 ;
103 [label=<pitch &le; 5.243<br/>gini = 0.258<br/>samples = 28<br/>value = [2, 24, 1, 1]<br/>class = noise>, fillcolor="#63e957"] ;
101 -> 103 ;
104 [label=<climbRate &le; -1.124<br/>gini = 0.203<br/>samples = 27<br/>value = [2, 24, 1, 0]<br/>class = noise>, fillcolor="#5de851"] ;
103 -> 104 ;
105 [label=<gini = 0.0<br/>samples = 1<br/>value = [1, 0, 0, 0]<br/>class = normal>, fillcolor="#e58139"] ;
104 -> 105 ;
106 [label=<rollRate &le; -10.466<br/>gini = 0.145<br/>samples = 26<br/>value = [1, 24, 1, 0]<br/>class = noise>, fillcolor="#56e749"] ;
104 -> 106 ;
107 [label=<roll &le; -20.1<br/>gini = 0.444<br/>samples = 3<br/>value = [1, 2, 0, 0]<br/>class = noise>, fillcolor="#a3f29c"] ;
106 -> 107 ;
108 [label=<gini = 0.0<br/>samples = 1<br/>value = [1, 0, 0, 0]<br/>class = normal>, fillcolor="#e58139"] ;
107 -> 108 ;
109 [label=<gini = 0.0<br/>samples = 2<br/>value = [0, 2, 0, 0]<br/>class = noise>, fillcolor="#47e539"] ;
107 -> 109 ;
110 [label=<rollRate &le; -2.56<br/>gini = 0.083<br/>samples = 23<br/>value = [0, 22, 1, 0]<br/>class = noise>, fillcolor="#4fe642"] ;
106 -> 110 ;
111 [label=<gini = 0.0<br/>samples = 20<br/>value = [0, 20, 0, 0]<br/>class = noise>, fillcolor="#47e539"] ;
110 -> 111 ;
112 [label=<throttlePct &le; -0.251<br/>gini = 0.444<br/>samples = 3<br/>value = [0, 2, 1, 0]<br/>class = noise>, fillcolor="#a3f29c"] ;
110 -> 112 ;
113 [label=<gini = 0.0<br/>samples = 1<br/>value = [0, 0, 1, 0]<br/>class = mild>, fillcolor="#399de5"] ;
112 -> 113 ;
114 [label=<gini = 0.0<br/>samples = 2<br/>value = [0, 2, 0, 0]<br/>class = noise>, fillcolor="#47e539"] ;
112 -> 114 ;
115 [label=<gini = 0.0<br/>samples = 1<br/>value = [0, 0, 0, 1]<br/>class = abnormal>, fillcolor="#d739e5"] ;
103 -> 115 ;
116 [label=<yawRate &le; 2.375<br/>gini = 0.342<br/>samples = 39<br/>value = [2, 31, 6, 0]<br/>class = noise>, fillcolor="#74eb69"] ;
90 -> 116 ;
117 [label=<climbRate &le; 1.186<br/>gini = 0.213<br/>samples = 34<br/>value = [1, 30, 3, 0]<br/>class = noise>, fillcolor="#5fe853"] ;
116 -> 117 ;
118 [label=<rollRate &le; -0.716<br/>gini = 0.165<br/>samples = 33<br/>value = [0, 30, 3, 0]<br/>class = noise>, fillcolor="#59e84d"] ;
117 -> 118 ;
119 [label=<roll &le; -12.105<br/>gini = 0.117<br/>samples = 32<br/>value = [0, 30, 2, 0]<br/>class = noise>, fillcolor="#53e746"] ;
118 -> 119 ;
120 [label=<yaw &le; -3.725<br/>gini = 0.062<br/>samples = 31<br/>value = [0, 30, 1, 0]<br/>class = noise>, fillcolor="#4de640"] ;
119 -> 120 ;
121 [label=<gini = 0.0<br/>samples = 29<br/>value = [0, 29, 0, 0]<br/>class = noise>, fillcolor="#47e539"] ;
120 -> 121 ;
122 [label=<pitch &le; -14.583<br/>gini = 0.5<br/>samples = 2<br/>value = [0, 1, 1, 0]<br/>class = noise>, fillcolor="#ffffff"] ;
120 -> 122 ;
123 [label=<gini = 0.0<br/>samples = 1<br/>value = [0, 1, 0, 0]<br/>class = noise>, fillcolor="#47e539"] ;
122 -> 123 ;
124 [label=<gini = 0.0<br/>samples = 1<br/>value = [0, 0, 1, 0]<br/>class = mild>, fillcolor="#399de5"] ;
122 -> 124 ;
125 [label=<gini = 0.0<br/>samples = 1<br/>value = [0, 0, 1, 0]<br/>class = mild>, fillcolor="#399de5"] ;
119 -> 125 ;
126 [label=<gini = 0.0<br/>samples = 1<br/>value = [0, 0, 1, 0]<br/>class = mild>, fillcolor="#399de5"] ;
118 -> 126 ;
127 [label=<gini = 0.0<br/>samples = 1<br/>value = [1, 0, 0, 0]<br/>class = normal>, fillcolor="#e58139"] ;
117 -> 127 ;
128 [label=<throttlePct &le; -0.066<br/>gini = 0.56<br/>samples = 5<br/>value = [1, 1, 3, 0]<br/>class = mild>, fillcolor="#9ccef2"] ;
116 -> 128 ;
129 [label=<gini = 0.0<br/>samples = 3<br/>value = [0, 0, 3, 0]<br/>class = mild>, fillcolor="#399de5"] ;
128 -> 129 ;
130 [label=<throttlePct &le; 0.089<br/>gini = 0.5<br/>samples = 2<br/>value = [1, 1, 0, 0]<br/>class = normal>, fillcolor="#ffffff"] ;
128 -> 130 ;
131 [label=<gini = 0.0<br/>samples = 1<br/>value = [1, 0, 0, 0]<br/>class = normal>, fillcolor="#e58139"] ;
130 -> 131 ;
132 [label=<gini = 0.0<br/>samples = 1<br/>value = [0, 1, 0, 0]<br/>class = noise>, fillcolor="#47e539"] ;
130 -> 132 ;
133 [label=<pitch &le; -21.387<br/>gini = 0.527<br/>samples = 456<br/>value = [122, 285, 47, 2]<br/>class = noise>, fillcolor="#a5f29e"] ;
3 -> 133 ;
134 [label=<pitchRate &le; -5.692<br/>gini = 0.493<br/>samples = 67<br/>value = [40, 26, 1, 0]<br/>class = normal>, fillcolor="#f6d4bb"] ;
133 -> 134 ;
135 [label=<throttlePct &le; -0.739<br/>gini = 0.251<br/>samples = 34<br/>value = [29, 5, 0, 0]<br/>class = normal>, fillcolor="#e9975b"] ;
134 -> 135 ;
136 [label=<gini = 0.0<br/>samples = 1<br/>value = [0, 1, 0, 0]<br/>class = noise>, fillcolor="#47e539"] ;
135 -> 136 ;
137 [label=<yawRate &le; 2.198<br/>gini = 0.213<br/>samples = 33<br/>value = [29, 4, 0, 0]<br/>class = normal>, fillcolor="#e99254"] ;
135 -> 137 ;
138 [label=<climbRate &le; 0.222<br/>gini = 0.17<br/>samples = 32<br/>value = [29, 3, 0, 0]<br/>class = normal>, fillcolor="#e88e4d"] ;
137 -> 138 ;
139 [label=<gini = 0.0<br/>samples = 21<br/>value = [21, 0, 0, 0]<br/>class = normal>, fillcolor="#e58139"] ;
138 -> 139 ;
140 [label=<pitch &le; -26.947<br/>gini = 0.397<br/>samples = 11<br/>value = [8, 3, 0, 0]<br/>class = normal>, fillcolor="#efb083"] ;
138 -> 140 ;
141 [label=<pitch &le; -31.627<br/>gini = 0.375<br/>samples = 4<br/>value = [1, 3, 0, 0]<br/>class = noise>, fillcolor="#84ee7b"] ;
140 -> 141 ;
142 [label=<gini = 0.0<br/>samples = 1<br/>value = [1, 0, 0, 0]<br/>class = normal>, fillcolor="#e58139"] ;
141 -> 142 ;
143 [label=<gini = 0.0<br/>samples = 3<br/>value = [0, 3, 0, 0]<br/>class = noise>, fillcolor="#47e539"] ;
141 -> 143 ;
144 [label=<gini = 0.0<br/>samples = 7<br/>value = [7, 0, 0, 0]<br/>class = normal>, fillcolor="#e58139"] ;
140 -> 144 ;
145 [label=<gini = 0.0<br/>samples = 1<br/>value = [0, 1, 0, 0]<br/>class = noise>, fillcolor="#47e539"] ;
137 -> 145 ;
146 [label=<yawRate &le; -9.935<br/>gini = 0.483<br/>samples = 33<br/>value = [11, 21, 1, 0]<br/>class = noise>, fillcolor="#abf3a5"] ;
134 -> 146 ;
147 [label=<gini = 0.0<br/>samples = 6<br/>value = [6, 0, 0, 0]<br/>class = normal>, fillcolor="#e58139"] ;
146 -> 147 ;
148 [label=<yawRate &le; -5.888<br/>gini = 0.359<br/>samples = 27<br/>value = [5, 21, 1, 0]<br/>class = noise>, fillcolor="#79ec6f"] ;
146 -> 148 ;
149 [label=<pitch &le; -26.948<br/>gini = 0.5<br/>samples = 6<br/>value = [3, 3, 0, 0]<br/>class = normal>, fillcolor="#ffffff"] ;
148 -> 149 ;
150 [label=<gini = 0.0<br/>samples = 2<br/>value = [0, 2, 0, 0]<br/>class = noise>, fillcolor="#47e539"] ;
149 -> 150 ;
151 [label=<pitch &le; -23.431<br/>gini = 0.375<br/>samples = 4<br/>value = [3, 1, 0, 0]<br/>class = normal>, fillcolor="#eeab7b"] ;
149 -> 151 ;
152 [label=<gini = 0.0<br/>samples = 3<br/>value = [3, 0, 0, 0]<br/>class = normal>, fillcolor="#e58139"] ;
151 -> 152 ;
153 [label=<gini = 0.0<br/>samples = 1<br/>value = [0, 1, 0, 0]<br/>class = noise>, fillcolor="#47e539"] ;
151 -> 153 ;
154 [label=<yaw &le; -27.173<br/>gini = 0.254<br/>samples = 21<br/>value = [2, 18, 1, 0]<br/>class = noise>, fillcolor="#64e958"] ;
148 -> 154 ;
155 [label=<gini = 0.0<br/>samples = 1<br/>value = [1, 0, 0, 0]<br/>class = normal>, fillcolor="#e58139"] ;
154 -> 155 ;
156 [label=<climbRate &le; -1.252<br/>gini = 0.185<br/>samples = 20<br/>value = [1, 18, 1, 0]<br/>class = noise>, fillcolor="#5ae84e"] ;
154 -> 156 ;
157 [label=<gini = 0.0<br/>samples = 1<br/>value = [1, 0, 0, 0]<br/>class = normal>, fillcolor="#e58139"] ;
156 -> 157 ;
158 [label=<yawRate &le; 2.829<br/>gini = 0.1<br/>samples = 19<br/>value = [0, 18, 1, 0]<br/>class = noise>, fillcolor="#51e644"] ;
156 -> 158 ;
159 [label=<gini = 0.0<br/>samples = 15<br/>value = [0, 15, 0, 0]<br/>class = noise>, fillcolor="#47e539"] ;
158 -> 159 ;
160 [label=<yawRate &le; 3.729<br/>gini = 0.375<br/>samples = 4<br/>value = [0, 3, 1, 0]<br/>class = noise>, fillcolor="#84ee7b"] ;
158 -> 160 ;
161 [label=<gini = 0.0<br/>samples = 1<br/>value = [0, 0, 1, 0]<br/>class = mild>, fillcolor="#399de5"] ;
160 -> 161 ;
162 [label=<gini = 0.0<br/>samples = 3<br/>value = [0, 3, 0, 0]<br/>class = noise>, fillcolor="#47e539"] ;
160 -> 162 ;
163 [label=<pitchRate &le; 2.148<br/>gini = 0.498<br/>samples = 389<br/>value = [82, 259, 46, 2]<br/>class = noise>, fillcolor="#95f08d"] ;
133 -> 163 ;
164 [label=<rollRate &le; -9.145<br/>gini = 0.464<br/>samples = 351<br/>value = [79, 243, 28, 1]<br/>class = noise>, fillcolor="#90ef88"] ;
163 -> 164 ;
165 [label=<pitch &le; -5.071<br/>gini = 0.497<br/>samples = 76<br/>value = [35, 41, 0, 0]<br/>class = noise>, fillcolor="#e4fbe2"] ;
164 -> 165 ;
166 [label=<yawRate &le; -5.588<br/>gini = 0.457<br/>samples = 51<br/>value = [33, 18, 0, 0]<br/>class = normal>, fillcolor="#f3c6a5"] ;
165 -> 166 ;
167 [label=<throttlePct &le; -0.336<br/>gini = 0.087<br/>samples = 22<br/>value = [21, 1, 0, 0]<br/>class = normal>, fillcolor="#e68742"] ;
166 -> 167 ;
168 [label=<rollRate &le; -13.273<br/>gini = 0.5<br/>samples = 2<br/>value = [1, 1, 0, 0]<br/>class = normal>, fillcolor="#ffffff"] ;
167 -> 168 ;
169 [label=<gini = 0.0<br/>samples = 1<br/>value = [1, 0, 0, 0]<br/>class = normal>, fillcolor="#e58139"] ;
168 -> 169 ;
170 [label=<gini = 0.0<br/>samples = 1<br/>value = [0, 1, 0, 0]<br/>class = noise>, fillcolor="#47e539"] ;
168 -> 170 ;
171 [label=<gini = 0.0<br/>samples = 20<br/>value = [20, 0, 0, 0]<br/>class = normal>, fillcolor="#e58139"] ;
167 -> 171 ;
172 [label=<pitchRate &le; -7.787<br/>gini = 0.485<br/>samples = 29<br/>value = [12, 17, 0, 0]<br/>class = noise>, fillcolor="#c9f7c5"] ;
166 -> 172 ;
173 [label=<yawRate &le; 0.043<br/>gini = 0.278<br/>samples = 6<br/>value = [5, 1, 0, 0]<br/>class = normal>, fillcolor="#ea9a61"] ;
172 -> 173 ;
174 [label=<gini = 0.0<br/>samples = 5<br/>value = [5, 0, 0, 0]<br/>class = normal>, fillcolor="#e58139"] ;
173 -> 174 ;
175 [label=<gini = 0.0<br/>samples = 1<br/>value = [0, 1, 0, 0]<br/>class = noise>, fillcolor="#47e539"] ;
173 -> 175 ;
176 [label=<climbRate &le; -0.368<br/>gini = 0.423<br/>samples = 23<br/>value = [7, 16, 0, 0]<br/>class = noise>, fillcolor="#98f090"] ;
172 -> 176 ;
177 [label=<yawRate &le; -2.355<br/>gini = 0.444<br/>samples = 6<br/>value = [4, 2, 0, 0]<br/>class = normal>, fillcolor="#f2c09c"] ;
176 -> 177 ;
178 [label=<gini = 0.0<br/>samples = 2<br/>value = [0, 2, 0, 0]<br/>class = noise>, fillcolor="#47e539"] ;
177 -> 178 ;
179 [label=<gini = 0.0<br/>samples = 4<br/>value = [4, 0, 0, 0]<br/>class = normal>, fillcolor="#e58139"] ;
177 -> 179 ;
180 [label=<yaw &le; -20.007<br/>gini = 0.291<br/>samples = 17<br/>value = [3, 14, 0, 0]<br/>class = noise>, fillcolor="#6eeb63"] ;
176 -> 180 ;
181 [label=<pitch &le; -11.823<br/>gini = 0.48<br/>samples = 5<br/>value = [3, 2, 0, 0]<br/>class = normal>, fillcolor="#f6d5bd"] ;
180 -> 181 ;
182 [label=<gini = 0.0<br/>samples = 3<br/>value = [3, 0, 0, 0]<br/>class = normal>, fillcolor="#e58139"] ;
181 -> 182 ;
183 [label=<gini = 0.0<br/>samples = 2<br/>value = [0, 2, 0, 0]<br/>class = noise>, fillcolor="#47e539"] ;
181 -> 183 ;
184 [label=<gini = 0.0<br/>samples = 12<br/>value = [0, 12, 0, 0]<br/>class = noise>, fillcolor="#47e539"] ;
180 -> 184 ;
185 [label=<yawRate &le; -10.954<br/>gini = 0.147<br/>samples = 25<br/>value = [2, 23, 0, 0]<br/>class = noise>, fillcolor="#57e74a"] ;
165 -> 185 ;
186 [label=<gini = 0.0<br/>samples = 1<br/>value = [1, 0, 0, 0]<br/>class = normal>, fillcolor="#e58139"] ;
185 -> 186 ;
187 [label=<pitchRate &le; -13.007<br/>gini = 0.08<br/>samples = 24<br/>value = [1, 23, 0, 0]<br/>class = noise>, fillcolor="#4fe642"] ;
185 -> 187 ;
188 [label=<gini = 0.0<br/>samples = 1<br/>value = [1, 0, 0, 0]<br/>class = normal>, fillcolor="#e58139"] ;
187 -> 188 ;
189 [label=<gini = 0.0<br/>samples = 23<br/>value = [0, 23, 0, 0]<br/>class = noise>, fillcolor="#47e539"] ;
187 -> 189 ;
190 [label=<climbRate &le; -1.583<br/>gini = 0.424<br/>samples = 275<br/>value = [44, 202, 28, 1]<br/>class = noise>, fillcolor="#81ed78"] ;
164 -> 190 ;
191 [label=<yaw &le; -8.681<br/>gini = 0.219<br/>samples = 8<br/>value = [7, 1, 0, 0]<br/>class = normal>, fillcolor="#e99355"] ;
190 -> 191 ;
192 [label=<gini = 0.0<br/>samples = 7<br/>value = [7, 0, 0, 0]<br/>class = normal>, fillcolor="#e58139"] ;
191 -> 192 ;
193 [label=<gini = 0.0<br/>samples = 1<br/>value = [0, 1, 0, 0]<br/>class = noise>, fillcolor="#47e539"] ;
191 -> 193 ;
194 [label=<climbRate &le; 1.057<br/>gini = 0.403<br/>samples = 267<br/>value = [37, 201, 28, 1]<br/>class = noise>, fillcolor="#7cec72"] ;
190 -> 194 ;
195 [label=<roll &le; 6.234<br/>gini = 0.382<br/>samples = 260<br/>value = [31, 200, 28, 1]<br/>class = noise>, fillcolor="#77ec6d"] ;
194 -> 195 ;
196 [label=<pitch &le; 8.49<br/>gini = 0.348<br/>samples = 243<br/>value = [30, 193, 19, 1]<br/>class = noise>, fillcolor="#72eb67"] ;
195 -> 196 ;
197 [label=<pitchRate &le; -12.103<br/>gini = 0.32<br/>samples = 235<br/>value = [30, 191, 14, 0]<br/>class = noise>, fillcolor="#6eeb63"] ;
196 -> 197 ;
198 [label=<yawRate &le; -4.775<br/>gini = 0.5<br/>samples = 20<br/>value = [10, 10, 0, 0]<br/>class = normal>, fillcolor="#ffffff"] ;
197 -> 198 ;
199 [label=<pitch &le; -4.656<br/>gini = 0.198<br/>samples = 9<br/>value = [8, 1, 0, 0]<br/>class = normal>, fillcolor="#e89152"] ;
198 -> 199 ;
200 [label=<gini = 0.0<br/>samples = 8<br/>value = [8, 0, 0, 0]<br/>class = normal>, fillcolor="#e58139"] ;
199 -> 200 ;
201 [label=<gini = 0.0<br/>samples = 1<br/>value = [0, 1, 0, 0]<br/>class = noise>, fillcolor="#47e539"] ;
199 -> 201 ;
202 [label=<yaw &le; -19.359<br/>gini = 0.298<br/>samples = 11<br/>value = [2, 9, 0, 0]<br/>class = noise>, fillcolor="#70eb65"] ;
198 -> 202 ;
203 [label=<gini = 0.0<br/>samples = 2<br/>value = [2, 0, 0, 0]<br/>class = normal>, fillcolor="#e58139"] ;
202 -> 203 ;
204 [label=<gini = 0.0<br/>samples = 9<br/>value = [0, 9, 0, 0]<br/>class = noise>, fillcolor="#47e539"] ;
202 -> 204 ;
205 [label=<yawRate &le; 5.374<br/>gini = 0.278<br/>samples = 215<br/>value = [20, 181, 14, 0]<br/>class = noise>, fillcolor="#67ea5c"] ;
197 -> 205 ;
206 [label=<yaw &le; -15.569<br/>gini = 0.266<br/>samples = 213<br/>value = [20, 181, 12, 0]<br/>class = noise>, fillcolor="#66e95a"] ;
205 -> 206 ;
207 [label=<climbRate &le; 0.812<br/>gini = 0.37<br/>samples = 85<br/>value = [18, 65, 2, 0]<br/>class = noise>, fillcolor="#7eed74"] ;
206 -> 207 ;
208 [label=<pitchRate &le; -5.515<br/>gini = 0.338<br/>samples = 82<br/>value = [15, 65, 2, 0]<br/>class = noise>, fillcolor="#76ec6b"] ;
207 -> 208 ;
209 [label=<yawRate &le; -8.094<br/>gini = 0.457<br/>samples = 34<br/>value = [12, 22, 0, 0]<br/>class = noise>, fillcolor="#abf3a5"] ;
208 -> 209 ;
210 [label=<roll &le; 0.078<br/>gini = 0.245<br/>samples = 7<br/>value = [6, 1, 0, 0]<br/>class = normal>, fillcolor="#e9965a"] ;
209 -> 210 ;
211 [label=<gini = 0.0<br/>samples = 6<br/>value = [6, 0, 0, 0]<br/>class = normal>, fillcolor="#e58139"] ;
210 -> 211 ;
212 [label=<gini = 0.0<br/>samples = 1<br/>value = [0, 1, 0, 0]<br/>class = noise>, fillcolor="#47e539"] ;
210 -> 212 ;
213 [label=<climbRate &le; -0.846<br/>gini = 0.346<br/>samples = 27<br/>value = [6, 21, 0, 0]<br/>class = noise>, fillcolor="#7cec72"] ;
209 -> 213 ;
214 [label=<rollRate &le; -2.396<br/>gini = 0.375<br/>samples = 4<br/>value = [3, 1, 0, 0]<br/>class = normal>, fillcolor="#eeab7b"] ;
213 -> 214 ;
215 [label=<gini = 0.0<br/>samples = 3<br/>value = [3, 0, 0, 0]<br/>class = normal>, fillcolor="#e58139"] ;
214 -> 215 ;
216 [label=<gini = 0.0<br/>samples = 1<br/>value = [0, 1, 0, 0]<br/>class = noise>, fillcolor="#47e539"] ;
214 -> 216 ;
217 [label=<throttlePct &le; 0.096<br/>gini = 0.227<br/>samples = 23<br/>value = [3, 20, 0, 0]<br/>class = noise>, fillcolor="#63e957"] ;
213 -> 217 ;
218 [label=<throttlePct &le; -0.027<br/>gini = 0.165<br/>samples = 22<br/>value = [2, 20, 0, 0]<br/>class = noise>, fillcolor="#59e84d"] ;
217 -> 218 ;
219 [label=<gini = 0.0<br/>samples = 13<br/>value = [0, 13, 0, 0]<br/>class = noise>, fillcolor="#47e539"] ;
218 -> 219 ;
220 [label=<throttlePct &le; -0.009<br/>gini = 0.346<br/>samples = 9<br/>value = [2, 7, 0, 0]<br/>class = noise>, fillcolor="#7cec72"] ;
218 -> 220 ;
221 [label=<gini = 0.0<br/>samples = 1<br/>value = [1, 0, 0, 0]<br/>class = normal>, fillcolor="#e58139"] ;
220 -> 221 ;
222 [label=<pitchRate &le; -6.909<br/>gini = 0.219<br/>samples = 8<br/>value = [1, 7, 0, 0]<br/>class = noise>, fillcolor="#61e955"] ;
220 -> 222 ;
223 [label=<gini = 0.0<br/>samples = 6<br/>value = [0, 6, 0, 0]<br/>class = noise>, fillcolor="#47e539"] ;
222 -> 223 ;
224 [label=<climbRate &le; -0.143<br/>gini = 0.5<br/>samples = 2<br/>value = [1, 1, 0, 0]<br/>class = normal>, fillcolor="#ffffff"] ;
222 -> 224 ;
225 [label=<gini = 0.0<br/>samples = 1<br/>value = [0, 1, 0, 0]<br/>class = noise>, fillcolor="#47e539"] ;
224 -> 225 ;
226 [label=<gini = 0.0<br/>samples = 1<br/>value = [1, 0, 0, 0]<br/>class = normal>, fillcolor="#e58139"] ;
224 -> 226 ;
227 [label=<gini = 0.0<br/>samples = 1<br/>value = [1, 0, 0, 0]<br/>class = normal>, fillcolor="#e58139"] ;
217 -> 227 ;
228 [label=<yaw &le; -25.659<br/>gini = 0.192<br/>samples = 48<br/>value = [3, 43, 2, 0]<br/>class = noise>, fillcolor="#5be84f"] ;
208 -> 228 ;
229 [label=<roll &le; -9.443<br/>gini = 0.667<br/>samples = 3<br/>value = [1, 1, 1, 0]<br/>class = normal>, fillcolor="#ffffff"] ;
228 -> 229 ;
230 [label=<gini = 0.0<br/>samples = 1<br/>value = [0, 1, 0, 0]<br/>class = noise>, fillcolor="#47e539"] ;
229 -> 230 ;
231 [label=<yaw &le; -27.966<br/>gini = 0.5<br/>samples = 2<br/>value = [1, 0, 1, 0]<br/>class = normal>, fillcolor="#ffffff"] ;
229 -> 231 ;
232 [label=<gini = 0.0<br/>samples = 1<br/>value = [1, 0, 0, 0]<br/>class = normal>, fillcolor="#e58139"] ;
231 -> 232 ;
233 [label=<gini = 0.0<br/>samples = 1<br/>value = [0, 0, 1, 0]<br/>class = mild>, fillcolor="#399de5"] ;
231 -> 233 ;
234 [label=<pitch &le; -7.917<br/>gini = 0.126<br/>samples = 45<br/>value = [2, 42, 1, 0]<br/>class = noise>, fillcolor="#54e747"] ;
228 -> 234 ;
235 [label=<gini = 0.0<br/>samples = 29<br/>value = [0, 29, 0, 0]<br/>class = noise>, fillcolor="#47e539"] ;
234 -> 235 ;
236 [label=<pitch &le; -7.189<br/>gini = 0.32<br/>samples = 16<br/>value = [2, 13, 1, 0]<br/>class = noise>, fillcolor="#6eeb63"] ;
234 -> 236 ;
237 [label=<gini = 0.0<br/>samples = 1<br/>value = [1, 0, 0, 0]<br/>class = normal>, fillcolor="#e58139"] ;
236 -> 237 ;
238 [label=<roll &le; -10.854<br/>gini = 0.24<br/>samples = 15<br/>value = [1, 13, 1, 0]<br/>class = noise>, fillcolor="#61e955"] ;
236 -> 238 ;
239 [label=<throttlePct &le; 0.081<br/>gini = 0.5<br/>samples = 2<br/>value = [1, 1, 0, 0]<br/>class = normal>, fillcolor="#ffffff"] ;
238 -> 239 ;
240 [label=<gini = 0.0<br/>samples = 1<br/>value = [0, 1, 0, 0]<br/>class = noise>, fillcolor="#47e539"] ;
239 -> 240 ;
241 [label=<gini = 0.0<br/>samples = 1<br/>value = [1, 0, 0, 0]<br/>class = normal>, fillcolor="#e58139"] ;
239 -> 241 ;
242 [label=<yawRate &le; -1.179<br/>gini = 0.142<br/>samples = 13<br/>value = [0, 12, 1, 0]<br/>class = noise>, fillcolor="#56e749"] ;
238 -> 242 ;
243 [label=<gini = 0.0<br/>samples = 12<br/>value = [0, 12, 0, 0]<br/>class = noise>, fillcolor="#47e539"] ;
242 -> 243 ;
244 [label=<gini = 0.0<br/>samples = 1<br/>value = [0, 0, 1, 0]<br/>class = mild>, fillcolor="#399de5"] ;
242 -> 244 ;
245 [label=<gini = 0.0<br/>samples = 3<br/>value = [3, 0, 0, 0]<br/>class = normal>, fillcolor="#e58139"] ;
207 -> 245 ;
246 [label=<yawRate &le; -2.169<br/>gini = 0.172<br/>samples = 128<br/>value = [2, 116, 10, 0]<br/>class = noise>, fillcolor="#5ae84d"] ;
206 -> 246 ;
247 [label=<pitch &le; 6.353<br/>gini = 0.061<br/>samples = 96<br/>value = [1, 93, 2, 0]<br/>class = noise>, fillcolor="#4de63f"] ;
246 -> 247 ;
248 [label=<roll &le; -8.572<br/>gini = 0.041<br/>samples = 95<br/>value = [1, 93, 1, 0]<br/>class = noise>, fillcolor="#4be63d"] ;
247 -> 248 ;
249 [label=<climbRate &le; -0.697<br/>gini = 0.145<br/>samples = 26<br/>value = [1, 24, 1, 0]<br/>class = noise>, fillcolor="#56e749"] ;
248 -> 249 ;
250 [label=<gini = 0.0<br/>samples = 1<br/>value = [1, 0, 0, 0]<br/>class = normal>, fillcolor="#e58139"] ;
249 -> 250 ;
251 [label=<roll &le; -8.601<br/>gini = 0.077<br/>samples = 25<br/>value = [0, 24, 1, 0]<br/>class = noise>, fillcolor="#4fe641"] ;
249 -> 251 ;
252 [label=<gini = 0.0<br/>samples = 24<br/>value = [0, 24, 0, 0]<br/>class = noise>, fillcolor="#47e539"] ;
251 -> 252 ;
253 [label=<gini = 0.0<br/>samples = 1<br/>value = [0, 0, 1, 0]<br/>class = mild>, fillcolor="#399de5"] ;
251 -> 253 ;
254 [label=<gini = 0.0<br/>samples = 69<br/>value = [0, 69, 0, 0]<br/>class = noise>, fillcolor="#47e539"] ;
248 -> 254 ;
255 [label=<gini = 0.0<br/>samples = 1<br/>value = [0, 0, 1, 0]<br/>class = mild>, fillcolor="#399de5"] ;
247 -> 255 ;
256 [label=<pitchRate &le; -2.366<br/>gini = 0.42<br/>samples = 32<br/>value = [1, 23, 8, 0]<br/>class = noise>, fillcolor="#8cef83"] ;
246 -> 256 ;
257 [label=<climbRate &le; -1.033<br/>gini = 0.322<br/>samples = 26<br/>value = [1, 21, 4, 0]<br/>class = noise>, fillcolor="#71eb66"] ;
256 -> 257 ;
258 [label=<gini = 0.0<br/>samples = 1<br/>value = [1, 0, 0, 0]<br/>class = normal>, fillcolor="#e58139"] ;
257 -> 258 ;
259 [label=<throttlePct &le; -0.44<br/>gini = 0.269<br/>samples = 25<br/>value = [0, 21, 4, 0]<br/>class = noise>, fillcolor="#6aea5f"] ;
257 -> 259 ;
260 [label=<gini = 0.0<br/>samples = 1<br/>value = [0, 0, 1, 0]<br/>class = mild>, fillcolor="#399de5"] ;
259 -> 260 ;
261 [label=<pitchRate &le; -5.574<br/>gini = 0.219<br/>samples = 24<br/>value = [0, 21, 3, 0]<br/>class = noise>, fillcolor="#61e955"] ;
259 -> 261 ;
262 [label=<gini = 0.0<br/>samples = 13<br/>value = [0, 13, 0, 0]<br/>class = noise>, fillcolor="#47e539"] ;
261 -> 262 ;
263 [label=<roll &le; -6.172<br/>gini = 0.397<br/>samples = 11<br/>value = [0, 8, 3, 0]<br/>class = noise>, fillcolor="#8cef83"] ;
261 -> 263 ;
264 [label=<pitchRate &le; -5.358<br/>gini = 0.198<br/>samples = 9<br/>value = [0, 8, 1, 0]<br/>class = noise>, fillcolor="#5ee852"] ;
263 -> 264 ;
265 [label=<gini = 0.0<br/>samples = 1<br/>value = [0, 0, 1, 0]<br/>class = mild>, fillcolor="#399de5"] ;
264 -> 265 ;
266 [label=<gini = 0.0<br/>samples = 8<br/>value = [0, 8, 0, 0]<br/>class = noise>, fillcolor="#47e539"] ;
264 -> 266 ;
267 [label=<gini = 0.0<br/>samples = 2<br/>value = [0, 0, 2, 0]<br/>class = mild>, fillcolor="#399de5"] ;
263 -> 267 ;
268 [label=<pitch &le; -13.323<br/>gini = 0.444<br/>samples = 6<br/>value = [0, 2, 4, 0]<br/>class = mild>, fillcolor="#9ccef2"] ;
256 -> 268 ;
269 [label=<gini = 0.0<br/>samples = 2<br/>value = [0, 2, 0, 0]<br/>class = noise>, fillcolor="#47e539"] ;
268 -> 269 ;
270 [label=<gini = 0.0<br/>samples = 4<br/>value = [0, 0, 4, 0]<br/>class = mild>, fillcolor="#399de5"] ;
268 -> 270 ;
271 [label=<gini = 0.0<br/>samples = 2<br/>value = [0, 0, 2, 0]<br/>class = mild>, fillcolor="#399de5"] ;
205 -> 271 ;
272 [label=<yawRate &le; -12.151<br/>gini = 0.531<br/>samples = 8<br/>value = [0, 2, 5, 1]<br/>class = mild>, fillcolor="#9ccef2"] ;
196 -> 272 ;
273 [label=<gini = 0.0<br/>samples = 2<br/>value = [0, 2, 0, 0]<br/>class = noise>, fillcolor="#47e539"] ;
272 -> 273 ;
274 [label=<pitchRate &le; -3.921<br/>gini = 0.278<br/>samples = 6<br/>value = [0, 0, 5, 1]<br/>class = mild>, fillcolor="#61b1ea"] ;
272 -> 274 ;
275 [label=<gini = 0.0<br/>samples = 1<br/>value = [0, 0, 0, 1]<br/>class = abnormal>, fillcolor="#d739e5"] ;
274 -> 275 ;
276 [label=<gini = 0.0<br/>samples = 5<br/>value = [0, 0, 5, 0]<br/>class = mild>, fillcolor="#399de5"] ;
274 -> 276 ;
277 [label=<yawRate &le; -5.719<br/>gini = 0.547<br/>samples = 17<br/>value = [1, 7, 9, 0]<br/>class = mild>, fillcolor="#d7ebfa"] ;
195 -> 277 ;
278 [label=<throttlePct &le; 0.068<br/>gini = 0.278<br/>samples = 6<br/>value = [1, 5, 0, 0]<br/>class = noise>, fillcolor="#6cea61"] ;
277 -> 278 ;
279 [label=<gini = 0.0<br/>samples = 5<br/>value = [0, 5, 0, 0]<br/>class = noise>, fillcolor="#47e539"] ;
278 -> 279 ;
280 [label=<gini = 0.0<br/>samples = 1<br/>value = [1, 0, 0, 0]<br/>class = normal>, fillcolor="#e58139"] ;
278 -> 280 ;
281 [label=<yaw &le; -19.187<br/>gini = 0.298<br/>samples = 11<br/>value = [0, 2, 9, 0]<br/>class = mild>, fillcolor="#65b3eb"] ;
277 -> 281 ;
282 [label=<gini = 0.0<br/>samples = 2<br/>value = [0, 2, 0, 0]<br/>class = noise>, fillcolor="#47e539"] ;
281 -> 282 ;
283 [label=<gini = 0.0<br/>samples = 9<br/>value = [0, 0, 9, 0]<br/>class = mild>, fillcolor="#399de5"] ;
281 -> 283 ;
284 [label=<yaw &le; -4.954<br/>gini = 0.245<br/>samples = 7<br/>value = [6, 1, 0, 0]<br/>class = normal>, fillcolor="#e9965a"] ;
194 -> 284 ;
285 [label=<gini = 0.0<br/>samples = 6<br/>value = [6, 0, 0, 0]<br/>class = normal>, fillcolor="#e58139"] ;
284 -> 285 ;
286 [label=<gini = 0.0<br/>samples = 1<br/>value = [0, 1, 0, 0]<br/>class = noise>, fillcolor="#47e539"] ;
284 -> 286 ;
287 [label=<rollRate &le; -8.318<br/>gini = 0.591<br/>samples = 38<br/>value = [3, 16, 18, 1]<br/>class = mild>, fillcolor="#edf6fd"] ;
163 -> 287 ;
288 [label=<pitchRate &le; 2.665<br/>gini = 0.403<br/>samples = 12<br/>value = [2, 9, 1, 0]<br/>class = noise>, fillcolor="#7eed74"] ;
287 -> 288 ;
289 [label=<yaw &le; -9.6<br/>gini = 0.5<br/>samples = 2<br/>value = [1, 0, 1, 0]<br/>class = normal>, fillcolor="#ffffff"] ;
288 -> 289 ;
290 [label=<gini = 0.0<br/>samples = 1<br/>value = [1, 0, 0, 0]<br/>class = normal>, fillcolor="#e58139"] ;
289 -> 290 ;
291 [label=<gini = 0.0<br/>samples = 1<br/>value = [0, 0, 1, 0]<br/>class = mild>, fillcolor="#399de5"] ;
289 -> 291 ;
292 [label=<climbRate &le; -1.191<br/>gini = 0.18<br/>samples = 10<br/>value = [1, 9, 0, 0]<br/>class = noise>, fillcolor="#5be84f"] ;
288 -> 292 ;
293 [label=<gini = 0.0<br/>samples = 1<br/>value = [1, 0, 0, 0]<br/>class = normal>, fillcolor="#e58139"] ;
292 -> 293 ;
294 [label=<gini = 0.0<br/>samples = 9<br/>value = [0, 9, 0, 0]<br/>class = noise>, fillcolor="#47e539"] ;
292 -> 294 ;
295 [label=<yawRate &le; -8.238<br/>gini = 0.497<br/>samples = 26<br/>value = [1, 7, 17, 1]<br/>class = mild>, fillcolor="#97cbf1"] ;
287 -> 295 ;
296 [label=<rollRate &le; -2.338<br/>gini = 0.278<br/>samples = 6<br/>value = [0, 5, 1, 0]<br/>class = noise>, fillcolor="#6cea61"] ;
295 -> 296 ;
297 [label=<gini = 0.0<br/>samples = 5<br/>value = [0, 5, 0, 0]<br/>class = noise>, fillcolor="#47e539"] ;
296 -> 297 ;
298 [label=<gini = 0.0<br/>samples = 1<br/>value = [0, 0, 1, 0]<br/>class = mild>, fillcolor="#399de5"] ;
296 -> 298 ;
299 [label=<climbRate &le; -0.808<br/>gini = 0.345<br/>samples = 20<br/>value = [1, 2, 16, 1]<br/>class = mild>, fillcolor="#65b3eb"] ;
295 -> 299 ;
300 [label=<gini = 0.0<br/>samples = 2<br/>value = [0, 2, 0, 0]<br/>class = noise>, fillcolor="#47e539"] ;
299 -> 300 ;
301 [label=<climbRate &le; 1.378<br/>gini = 0.204<br/>samples = 18<br/>value = [1, 0, 16, 1]<br/>class = mild>, fillcolor="#50a9e8"] ;
299 -> 301 ;
302 [label=<yaw &le; -4.194<br/>gini = 0.111<br/>samples = 17<br/>value = [0, 0, 16, 1]<br/>class = mild>, fillcolor="#45a3e7"] ;
301 -> 302 ;
303 [label=<gini = 0.0<br/>samples = 16<br/>value = [0, 0, 16, 0]<br/>class = mild>, fillcolor="#399de5"] ;
302 -> 303 ;
304 [label=<gini = 0.0<br/>samples = 1<br/>value = [0, 0, 0, 1]<br/>class = abnormal>, fillcolor="#d739e5"] ;
302 -> 304 ;
305 [label=<gini = 0.0<br/>samples = 1<br/>value = [1, 0, 0, 0]<br/>class = normal>, fillcolor="#e58139"] ;
301 -> 305 ;
306 [label=<roll &le; -3.673<br/>gini = 0.675<br/>samples = 455<br/>value = [49, 203, 141, 62]<br/>class = noise>, fillcolor="#dbfad8"] ;
2 -> 306 ;
307 [label=<pitch &le; -20.759<br/>gini = 0.538<br/>samples = 257<br/>value = [46, 161, 50, 0]<br/>class = noise>, fillcolor="#9cf195"] ;
306 -> 307 ;
308 [label=<rollRate &le; -6.789<br/>gini = 0.452<br/>samples = 29<br/>value = [19, 10, 0, 0]<br/>class = normal>, fillcolor="#f3c3a1"] ;
307 -> 308 ;
309 [label=<gini = 0.0<br/>samples = 14<br/>value = [14, 0, 0, 0]<br/>class = normal>, fillcolor="#e58139"] ;
308 -> 309 ;
310 [label=<pitchRate &le; -4.926<br/>gini = 0.444<br/>samples = 15<br/>value = [5, 10, 0, 0]<br/>class = noise>, fillcolor="#a3f29c"] ;
308 -> 310 ;
311 [label=<yaw &le; 2.457<br/>gini = 0.408<br/>samples = 7<br/>value = [5, 2, 0, 0]<br/>class = normal>, fillcolor="#efb388"] ;
310 -> 311 ;
312 [label=<gini = 0.0<br/>samples = 5<br/>value = [5, 0, 0, 0]<br/>class = normal>, fillcolor="#e58139"] ;
311 -> 312 ;
313 [label=<gini = 0.0<br/>samples = 2<br/>value = [0, 2, 0, 0]<br/>class = noise>, fillcolor="#47e539"] ;
311 -> 313 ;
314 [label=<gini = 0.0<br/>samples = 8<br/>value = [0, 8, 0, 0]<br/>class = noise>, fillcolor="#47e539"] ;
310 -> 314 ;
315 [label=<pitchRate &le; -0.855<br/>gini = 0.499<br/>samples = 228<br/>value = [27, 151, 50, 0]<br/>class = noise>, fillcolor="#97f08f"] ;
307 -> 315 ;
316 [label=<yawRate &le; -11.641<br/>gini = 0.437<br/>samples = 178<br/>value = [26, 129, 23, 0]<br/>class = noise>, fillcolor="#82ed79"] ;
315 -> 316 ;
317 [label=<yaw &le; 3.137<br/>gini = 0.492<br/>samples = 16<br/>value = [9, 7, 0, 0]<br/>class = normal>, fillcolor="#f9e3d3"] ;
316 -> 317 ;
318 [label=<gini = 0.0<br/>samples = 8<br/>value = [8, 0, 0, 0]<br/>class = normal>, fillcolor="#e58139"] ;
317 -> 318 ;
319 [label=<roll &le; -25.373<br/>gini = 0.219<br/>samples = 8<br/>value = [1, 7, 0, 0]<br/>class = noise>, fillcolor="#61e955"] ;
317 -> 319 ;
320 [label=<gini = 0.0<br/>samples = 1<br/>value = [1, 0, 0, 0]<br/>class = normal>, fillcolor="#e58139"] ;
319 -> 320 ;
321 [label=<gini = 0.0<br/>samples = 7<br/>value = [0, 7, 0, 0]<br/>class = noise>, fillcolor="#47e539"] ;
319 -> 321 ;
322 [label=<climbRate &le; -1.211<br/>gini = 0.402<br/>samples = 162<br/>value = [17, 122, 23, 0]<br/>class = noise>, fillcolor="#7cec72"] ;
316 -> 322 ;
323 [label=<yaw &le; 3.276<br/>gini = 0.463<br/>samples = 11<br/>value = [7, 4, 0, 0]<br/>class = normal>, fillcolor="#f4c9aa"] ;
322 -> 323 ;
324 [label=<gini = 0.0<br/>samples = 7<br/>value = [7, 0, 0, 0]<br/>class = normal>, fillcolor="#e58139"] ;
323 -> 324 ;
325 [label=<gini = 0.0<br/>samples = 4<br/>value = [0, 4, 0, 0]<br/>class = noise>, fillcolor="#47e539"] ;
323 -> 325 ;
326 [label=<pitch &le; -0.047<br/>gini = 0.362<br/>samples = 151<br/>value = [10, 118, 23, 0]<br/>class = noise>, fillcolor="#76ec6c"] ;
322 -> 326 ;
327 [label=<yawRate &le; 1.036<br/>gini = 0.275<br/>samples = 122<br/>value = [9, 103, 10, 0]<br/>class = noise>, fillcolor="#66e95b"] ;
326 -> 327 ;
328 [label=<roll &le; -29.358<br/>gini = 0.216<br/>samples = 109<br/>value = [9, 96, 4, 0]<br/>class = noise>, fillcolor="#5fe853"] ;
327 -> 328 ;
329 [label=<pitchRate &le; -5.307<br/>gini = 0.49<br/>samples = 7<br/>value = [4, 3, 0, 0]<br/>class = normal>, fillcolor="#f8e0ce"] ;
328 -> 329 ;
330 [label=<gini = 0.0<br/>samples = 3<br/>value = [3, 0, 0, 0]<br/>class = normal>, fillcolor="#e58139"] ;
329 -> 330 ;
331 [label=<pitch &le; -15.93<br/>gini = 0.375<br/>samples = 4<br/>value = [1, 3, 0, 0]<br/>class = noise>, fillcolor="#84ee7b"] ;
329 -> 331 ;
332 [label=<gini = 0.0<br/>samples = 1<br/>value = [1, 0, 0, 0]<br/>class = normal>, fillcolor="#e58139"] ;
331 -> 332 ;
333 [label=<gini = 0.0<br/>samples = 3<br/>value = [0, 3, 0, 0]<br/>class = noise>, fillcolor="#47e539"] ;
331 -> 333 ;
334 [label=<pitchRate &le; -12.794<br/>gini = 0.165<br/>samples = 102<br/>value = [5, 93, 4, 0]<br/>class = noise>, fillcolor="#58e74b"] ;
328 -> 334 ;
335 [label=<gini = 0.0<br/>samples = 1<br/>value = [1, 0, 0, 0]<br/>class = normal>, fillcolor="#e58139"] ;
334 -> 335 ;
336 [label=<rollRate &le; -12.171<br/>gini = 0.149<br/>samples = 101<br/>value = [4, 93, 4, 0]<br/>class = noise>, fillcolor="#56e749"] ;
334 -> 336 ;
337 [label=<pitch &le; -8.172<br/>gini = 0.426<br/>samples = 13<br/>value = [4, 9, 0, 0]<br/>class = noise>, fillcolor="#99f191"] ;
336 -> 337 ;
338 [label=<pitchRate &le; -7.81<br/>gini = 0.444<br/>samples = 6<br/>value = [4, 2, 0, 0]<br/>class = normal>, fillcolor="#f2c09c"] ;
337 -> 338 ;
339 [label=<gini = 0.0<br/>samples = 2<br/>value = [0, 2, 0, 0]<br/>class = noise>, fillcolor="#47e539"] ;
338 -> 339 ;
340 [label=<gini = 0.0<br/>samples = 4<br/>value = [4, 0, 0, 0]<br/>class = normal>, fillcolor="#e58139"] ;
338 -> 340 ;
341 [label=<gini = 0.0<br/>samples = 7<br/>value = [0, 7, 0, 0]<br/>class = noise>, fillcolor="#47e539"] ;
337 -> 341 ;
342 [label=<throttlePct &le; -0.445<br/>gini = 0.087<br/>samples = 88<br/>value = [0, 84, 4, 0]<br/>class = noise>, fillcolor="#50e642"] ;
336 -> 342 ;
343 [label=<yaw &le; 4.994<br/>gini = 0.32<br/>samples = 15<br/>value = [0, 12, 3, 0]<br/>class = noise>, fillcolor="#75ec6a"] ;
342 -> 343 ;
344 [label=<gini = 0.0<br/>samples = 12<br/>value = [0, 12, 0, 0]<br/>class = noise>, fillcolor="#47e539"] ;
343 -> 344 ;
345 [label=<gini = 0.0<br/>samples = 3<br/>value = [0, 0, 3, 0]<br/>class = mild>, fillcolor="#399de5"] ;
343 -> 345 ;
346 [label=<pitch &le; -0.44<br/>gini = 0.027<br/>samples = 73<br/>value = [0, 72, 1, 0]<br/>class = noise>, fillcolor="#4ae53c"] ;
342 -> 346 ;
347 [label=<gini = 0.0<br/>samples = 69<br/>value = [0, 69, 0, 0]<br/>class = noise>, fillcolor="#47e539"] ;
346 -> 347 ;
348 [label=<throttlePct &le; 0.084<br/>gini = 0.375<br/>samples = 4<br/>value = [0, 3, 1, 0]<br/>class = noise>, fillcolor="#84ee7b"] ;
346 -> 348 ;
349 [label=<gini = 0.0<br/>samples = 3<br/>value = [0, 3, 0, 0]<br/>class = noise>, fillcolor="#47e539"] ;
348 -> 349 ;
350 [label=<gini = 0.0<br/>samples = 1<br/>value = [0, 0, 1, 0]<br/>class = mild>, fillcolor="#399de5"] ;
348 -> 350 ;
351 [label=<rollRate &le; -7.587<br/>gini = 0.497<br/>samples = 13<br/>value = [0, 7, 6, 0]<br/>class = noise>, fillcolor="#e5fbe3"] ;
327 -> 351 ;
352 [label=<gini = 0.0<br/>samples = 6<br/>value = [0, 6, 0, 0]<br/>class = noise>, fillcolor="#47e539"] ;
351 -> 352 ;
353 [label=<pitch &le; -9.121<br/>gini = 0.245<br/>samples = 7<br/>value = [0, 1, 6, 0]<br/>class = mild>, fillcolor="#5aade9"] ;
351 -> 353 ;
354 [label=<gini = 0.0<br/>samples = 6<br/>value = [0, 0, 6, 0]<br/>class = mild>, fillcolor="#399de5"] ;
353 -> 354 ;
355 [label=<gini = 0.0<br/>samples = 1<br/>value = [0, 1, 0, 0]<br/>class = noise>, fillcolor="#47e539"] ;
353 -> 355 ;
356 [label=<rollRate &le; -5.095<br/>gini = 0.53<br/>samples = 29<br/>value = [1, 15, 13, 0]<br/>class = noise>, fillcolor="#e8fce6"] ;
326 -> 356 ;
357 [label=<pitchRate &le; -3.337<br/>gini = 0.426<br/>samples = 18<br/>value = [1, 13, 4, 0]<br/>class = noise>, fillcolor="#89ee80"] ;
356 -> 357 ;
358 [label=<yaw &le; 9.309<br/>gini = 0.255<br/>samples = 14<br/>value = [1, 12, 1, 0]<br/>class = noise>, fillcolor="#63e957"] ;
357 -> 358 ;
359 [label=<gini = 0.0<br/>samples = 12<br/>value = [0, 12, 0, 0]<br/>class = noise>, fillcolor="#47e539"] ;
358 -> 359 ;
360 [label=<rollRate &le; -8.548<br/>gini = 0.5<br/>samples = 2<br/>value = [1, 0, 1, 0]<br/>class = normal>, fillcolor="#ffffff"] ;
358 -> 360 ;
361 [label=<gini = 0.0<br/>samples = 1<br/>value = [1, 0, 0, 0]<br/>class = normal>, fillcolor="#e58139"] ;
360 -> 361 ;
362 [label=<gini = 0.0<br/>samples = 1<br/>value = [0, 0, 1, 0]<br/>class = mild>, fillcolor="#399de5"] ;
360 -> 362 ;
363 [label=<pitch &le; 4.083<br/>gini = 0.375<br/>samples = 4<br/>value = [0, 1, 3, 0]<br/>class = mild>, fillcolor="#7bbeee"] ;
357 -> 363 ;
364 [label=<gini = 0.0<br/>samples = 1<br/>value = [0, 1, 0, 0]<br/>class = noise>, fillcolor="#47e539"] ;
363 -> 364 ;
365 [label=<gini = 0.0<br/>samples = 3<br/>value = [0, 0, 3, 0]<br/>class = mild>, fillcolor="#399de5"] ;
363 -> 365 ;
366 [label=<roll &le; -5.405<br/>gini = 0.298<br/>samples = 11<br/>value = [0, 2, 9, 0]<br/>class = mild>, fillcolor="#65b3eb"] ;
356 -> 366 ;
367 [label=<pitchRate &le; -8.871<br/>gini = 0.18<br/>samples = 10<br/>value = [0, 1, 9, 0]<br/>class = mild>, fillcolor="#4fa8e8"] ;
366 -> 367 ;
368 [label=<gini = 0.0<br/>samples = 1<br/>value = [0, 1, 0, 0]<br/>class = noise>, fillcolor="#47e539"] ;
367 -> 368 ;
369 [label=<gini = 0.0<br/>samples = 9<br/>value = [0, 0, 9, 0]<br/>class = mild>, fillcolor="#399de5"] ;
367 -> 369 ;
370 [label=<gini = 0.0<br/>samples = 1<br/>value = [0, 1, 0, 0]<br/>class = noise>, fillcolor="#47e539"] ;
366 -> 370 ;
371 [label=<throttlePct &le; -0.1<br/>gini = 0.514<br/>samples = 50<br/>value = [1, 22, 27, 0]<br/>class = mild>, fillcolor="#dceefa"] ;
315 -> 371 ;
372 [label=<yawRate &le; -7.134<br/>gini = 0.392<br/>samples = 24<br/>value = [1, 5, 18, 0]<br/>class = mild>, fillcolor="#78bced"] ;
371 -> 372 ;
373 [label=<yaw &le; 1.792<br/>gini = 0.571<br/>samples = 7<br/>value = [1, 4, 2, 0]<br/>class = noise>, fillcolor="#b5f5b0"] ;
372 -> 373 ;
374 [label=<gini = 0.0<br/>samples = 3<br/>value = [0, 3, 0, 0]<br/>class = noise>, fillcolor="#47e539"] ;
373 -> 374 ;
375 [label=<rollRate &le; -5.77<br/>gini = 0.625<br/>samples = 4<br/>value = [1, 1, 2, 0]<br/>class = mild>, fillcolor="#bddef6"] ;
373 -> 375 ;
376 [label=<roll &le; -23.086<br/>gini = 0.5<br/>samples = 2<br/>value = [1, 1, 0, 0]<br/>class = normal>, fillcolor="#ffffff"] ;
375 -> 376 ;
377 [label=<gini = 0.0<br/>samples = 1<br/>value = [1, 0, 0, 0]<br/>class = normal>, fillcolor="#e58139"] ;
376 -> 377 ;
378 [label=<gini = 0.0<br/>samples = 1<br/>value = [0, 1, 0, 0]<br/>class = noise>, fillcolor="#47e539"] ;
376 -> 378 ;
379 [label=<gini = 0.0<br/>samples = 2<br/>value = [0, 0, 2, 0]<br/>class = mild>, fillcolor="#399de5"] ;
375 -> 379 ;
380 [label=<climbRate &le; 0.905<br/>gini = 0.111<br/>samples = 17<br/>value = [0, 1, 16, 0]<br/>class = mild>, fillcolor="#45a3e7"] ;
372 -> 380 ;
381 [label=<gini = 0.0<br/>samples = 16<br/>value = [0, 0, 16, 0]<br/>class = mild>, fillcolor="#399de5"] ;
380 -> 381 ;
382 [label=<gini = 0.0<br/>samples = 1<br/>value = [0, 1, 0, 0]<br/>class = noise>, fillcolor="#47e539"] ;
380 -> 382 ;
383 [label=<yaw &le; 1.129<br/>gini = 0.453<br/>samples = 26<br/>value = [0, 17, 9, 0]<br/>class = noise>, fillcolor="#a8f3a2"] ;
371 -> 383 ;
384 [label=<yaw &le; -2.694<br/>gini = 0.153<br/>samples = 12<br/>value = [0, 11, 1, 0]<br/>class = noise>, fillcolor="#58e74b"] ;
383 -> 384 ;
385 [label=<gini = 0.0<br/>samples = 1<br/>value = [0, 0, 1, 0]<br/>class = mild>, fillcolor="#399de5"] ;
384 -> 385 ;
386 [label=<gini = 0.0<br/>samples = 11<br/>value = [0, 11, 0, 0]<br/>class = noise>, fillcolor="#47e539"] ;
384 -> 386 ;
387 [label=<yawRate &le; -3.138<br/>gini = 0.49<br/>samples = 14<br/>value = [0, 6, 8, 0]<br/>class = mild>, fillcolor="#cee6f8"] ;
383 -> 387 ;
388 [label=<throttlePct &le; -0.006<br/>gini = 0.444<br/>samples = 9<br/>value = [0, 6, 3, 0]<br/>class = noise>, fillcolor="#a3f29c"] ;
387 -> 388 ;
389 [label=<gini = 0.0<br/>samples = 4<br/>value = [0, 4, 0, 0]<br/>class = noise>, fillcolor="#47e539"] ;
388 -> 389 ;
390 [label=<yaw &le; 5.24<br/>gini = 0.48<br/>samples = 5<br/>value = [0, 2, 3, 0]<br/>class = mild>, fillcolor="#bddef6"] ;
388 -> 390 ;
391 [label=<gini = 0.0<br/>samples = 3<br/>value = [0, 0, 3, 0]<br/>class = mild>, fillcolor="#399de5"] ;
390 -> 391 ;
392 [label=<gini = 0.0<br/>samples = 2<br/>value = [0, 2, 0, 0]<br/>class = noise>, fillcolor="#47e539"] ;
390 -> 392 ;
393 [label=<gini = 0.0<br/>samples = 5<br/>value = [0, 0, 5, 0]<br/>class = mild>, fillcolor="#399de5"] ;
387 -> 393 ;
394 [label=<rollRate &le; -3.792<br/>gini = 0.645<br/>samples = 198<br/>value = [3, 42, 91, 62]<br/>class = mild>, fillcolor="#d5eaf9"] ;
306 -> 394 ;
395 [label=<yawRate &le; 2.591<br/>gini = 0.527<br/>samples = 61<br/>value = [2, 35, 23, 1]<br/>class = noise>, fillcolor="#c5f7c0"] ;
394 -> 395 ;
396 [label=<pitch &le; 2.845<br/>gini = 0.49<br/>samples = 54<br/>value = [2, 35, 16, 1]<br/>class = noise>, fillcolor="#a3f29c"] ;
395 -> 396 ;
397 [label=<roll &le; 13.474<br/>gini = 0.405<br/>samples = 46<br/>value = [2, 34, 10, 0]<br/>class = noise>, fillcolor="#84ee7b"] ;
396 -> 397 ;
398 [label=<climbRate &le; 0.07<br/>gini = 0.368<br/>samples = 44<br/>value = [2, 34, 8, 0]<br/>class = noise>, fillcolor="#7aec70"] ;
397 -> 398 ;
399 [label=<rollRate &le; -6.59<br/>gini = 0.486<br/>samples = 25<br/>value = [1, 16, 8, 0]<br/>class = noise>, fillcolor="#a8f3a2"] ;
398 -> 399 ;
400 [label=<pitchRate &le; -2.409<br/>gini = 0.364<br/>samples = 18<br/>value = [1, 14, 3, 0]<br/>class = noise>, fillcolor="#78ec6e"] ;
399 -> 400 ;
401 [label=<climbRate &le; -1.441<br/>gini = 0.153<br/>samples = 12<br/>value = [1, 11, 0, 0]<br/>class = noise>, fillcolor="#58e74b"] ;
400 -> 401 ;
402 [label=<gini = 0.0<br/>samples = 1<br/>value = [1, 0, 0, 0]<br/>class = normal>, fillcolor="#e58139"] ;
401 -> 402 ;
403 [label=<gini = 0.0<br/>samples = 11<br/>value = [0, 11, 0, 0]<br/>class = noise>, fillcolor="#47e539"] ;
401 -> 403 ;
404 [label=<pitch &le; -11.291<br/>gini = 0.5<br/>samples = 6<br/>value = [0, 3, 3, 0]<br/>class = noise>, fillcolor="#ffffff"] ;
400 -> 404 ;
405 [label=<gini = 0.0<br/>samples = 3<br/>value = [0, 3, 0, 0]<br/>class = noise>, fillcolor="#47e539"] ;
404 -> 405 ;
406 [label=<gini = 0.0<br/>samples = 3<br/>value = [0, 0, 3, 0]<br/>class = mild>, fillcolor="#399de5"] ;
404 -> 406 ;
407 [label=<throttlePct &le; -0.327<br/>gini = 0.408<br/>samples = 7<br/>value = [0, 2, 5, 0]<br/>class = mild>, fillcolor="#88c4ef"] ;
399 -> 407 ;
408 [label=<gini = 0.0<br/>samples = 2<br/>value = [0, 2, 0, 0]<br/>class = noise>, fillcolor="#47e539"] ;
407 -> 408 ;
409 [label=<gini = 0.0<br/>samples = 5<br/>value = [0, 0, 5, 0]<br/>class = mild>, fillcolor="#399de5"] ;
407 -> 409 ;
410 [label=<rollRate &le; -15.452<br/>gini = 0.1<br/>samples = 19<br/>value = [1, 18, 0, 0]<br/>class = noise>, fillcolor="#51e644"] ;
398 -> 410 ;
411 [label=<gini = 0.0<br/>samples = 1<br/>value = [1, 0, 0, 0]<br/>class = normal>, fillcolor="#e58139"] ;
410 -> 411 ;
412 [label=<gini = 0.0<br/>samples = 18<br/>value = [0, 18, 0, 0]<br/>class = noise>, fillcolor="#47e539"] ;
410 -> 412 ;
413 [label=<gini = 0.0<br/>samples = 2<br/>value = [0, 0, 2, 0]<br/>class = mild>, fillcolor="#399de5"] ;
397 -> 413 ;
414 [label=<yaw &le; 10.212<br/>gini = 0.406<br/>samples = 8<br/>value = [0, 1, 6, 1]<br/>class = mild>, fillcolor="#72b9ec"] ;
396 -> 414 ;
415 [label=<gini = 0.0<br/>samples = 6<br/>value = [0, 0, 6, 0]<br/>class = mild>, fillcolor="#399de5"] ;
414 -> 415 ;
416 [label=<yaw &le; 13.696<br/>gini = 0.5<br/>samples = 2<br/>value = [0, 1, 0, 1]<br/>class = noise>, fillcolor="#ffffff"] ;
414 -> 416 ;
417 [label=<gini = 0.0<br/>samples = 1<br/>value = [0, 1, 0, 0]<br/>class = noise>, fillcolor="#47e539"] ;
416 -> 417 ;
418 [label=<gini = 0.0<br/>samples = 1<br/>value = [0, 0, 0, 1]<br/>class = abnormal>, fillcolor="#d739e5"] ;
416 -> 418 ;
419 [label=<gini = 0.0<br/>samples = 7<br/>value = [0, 0, 7, 0]<br/>class = mild>, fillcolor="#399de5"] ;
395 -> 419 ;
420 [label=<pitchRate &le; -1.661<br/>gini = 0.553<br/>samples = 137<br/>value = [1, 7, 68, 61]<br/>class = mild>, fillcolor="#edf6fd"] ;
394 -> 420 ;
421 [label=<yawRate &le; -7.791<br/>gini = 0.451<br/>samples = 46<br/>value = [1, 6, 33, 6]<br/>class = mild>, fillcolor="#79bded"] ;
420 -> 421 ;
422 [label=<throttlePct &le; -0.193<br/>gini = 0.375<br/>samples = 4<br/>value = [1, 3, 0, 0]<br/>class = noise>, fillcolor="#84ee7b"] ;
421 -> 422 ;
423 [label=<gini = 0.0<br/>samples = 1<br/>value = [1, 0, 0, 0]<br/>class = normal>, fillcolor="#e58139"] ;
422 -> 423 ;
424 [label=<gini = 0.0<br/>samples = 3<br/>value = [0, 3, 0, 0]<br/>class = noise>, fillcolor="#47e539"] ;
422 -> 424 ;
425 [label=<pitchRate &le; -11.07<br/>gini = 0.357<br/>samples = 42<br/>value = [0, 3, 33, 6]<br/>class = mild>, fillcolor="#6bb6ec"] ;
421 -> 425 ;
426 [label=<rollRate &le; -0.928<br/>gini = 0.375<br/>samples = 4<br/>value = [0, 3, 1, 0]<br/>class = noise>, fillcolor="#84ee7b"] ;
425 -> 426 ;
427 [label=<gini = 0.0<br/>samples = 3<br/>value = [0, 3, 0, 0]<br/>class = noise>, fillcolor="#47e539"] ;
426 -> 427 ;
428 [label=<gini = 0.0<br/>samples = 1<br/>value = [0, 0, 1, 0]<br/>class = mild>, fillcolor="#399de5"] ;
426 -> 428 ;
429 [label=<pitch &le; -0.616<br/>gini = 0.266<br/>samples = 38<br/>value = [0, 0, 32, 6]<br/>class = mild>, fillcolor="#5eafea"] ;
425 -> 429 ;
430 [label=<throttlePct &le; -0.364<br/>gini = 0.069<br/>samples = 28<br/>value = [0, 0, 27, 1]<br/>class = mild>, fillcolor="#40a1e6"] ;
429 -> 430 ;
431 [label=<throttlePct &le; -0.53<br/>gini = 0.5<br/>samples = 2<br/>value = [0, 0, 1, 1]<br/>class = mild>, fillcolor="#ffffff"] ;
430 -> 431 ;
432 [label=<gini = 0.0<br/>samples = 1<br/>value = [0, 0, 1, 0]<br/>class = mild>, fillcolor="#399de5"] ;
431 -> 432 ;
433 [label=<gini = 0.0<br/>samples = 1<br/>value = [0, 0, 0, 1]<br/>class = abnormal>, fillcolor="#d739e5"] ;
431 -> 433 ;
434 [label=<gini = 0.0<br/>samples = 26<br/>value = [0, 0, 26, 0]<br/>class = mild>, fillcolor="#399de5"] ;
430 -> 434 ;
435 [label=<pitchRate &le; -2.747<br/>gini = 0.5<br/>samples = 10<br/>value = [0, 0, 5, 5]<br/>class = mild>, fillcolor="#ffffff"] ;
429 -> 435 ;
436 [label=<gini = 0.0<br/>samples = 4<br/>value = [0, 0, 4, 0]<br/>class = mild>, fillcolor="#399de5"] ;
435 -> 436 ;
437 [label=<climbRate &le; -0.194<br/>gini = 0.278<br/>samples = 6<br/>value = [0, 0, 1, 5]<br/>class = abnormal>, fillcolor="#df61ea"] ;
435 -> 437 ;
438 [label=<gini = 0.0<br/>samples = 1<br/>value = [0, 0, 1, 0]<br/>class = mild>, fillcolor="#399de5"] ;
437 -> 438 ;
439 [label=<gini = 0.0<br/>samples = 5<br/>value = [0, 0, 0, 5]<br/>class = abnormal>, fillcolor="#d739e5"] ;
437 -> 439 ;
440 [label=<yawRate &le; -1.61<br/>gini = 0.487<br/>samples = 91<br/>value = [0, 1, 35, 55]<br/>class = abnormal>, fillcolor="#f1b8f6"] ;
420 -> 440 ;
441 [label=<throttlePct &le; -0.016<br/>gini = 0.447<br/>samples = 29<br/>value = [0, 1, 20, 8]<br/>class = mild>, fillcolor="#8ec7f0"] ;
440 -> 441 ;
442 [label=<rollRate &le; -1.257<br/>gini = 0.494<br/>samples = 18<br/>value = [0, 0, 10, 8]<br/>class = mild>, fillcolor="#d7ebfa"] ;
441 -> 442 ;
443 [label=<climbRate &le; -0.186<br/>gini = 0.245<br/>samples = 7<br/>value = [0, 0, 6, 1]<br/>class = mild>, fillcolor="#5aade9"] ;
442 -> 443 ;
444 [label=<gini = 0.0<br/>samples = 1<br/>value = [0, 0, 0, 1]<br/>class = abnormal>, fillcolor="#d739e5"] ;
443 -> 444 ;
445 [label=<gini = 0.0<br/>samples = 6<br/>value = [0, 0, 6, 0]<br/>class = mild>, fillcolor="#399de5"] ;
443 -> 445 ;
446 [label=<yawRate &le; -2.565<br/>gini = 0.463<br/>samples = 11<br/>value = [0, 0, 4, 7]<br/>class = abnormal>, fillcolor="#eeaaf4"] ;
442 -> 446 ;
447 [label=<throttlePct &le; -0.032<br/>gini = 0.32<br/>samples = 5<br/>value = [0, 0, 4, 1]<br/>class = mild>, fillcolor="#6ab6ec"] ;
446 -> 447 ;
448 [label=<gini = 0.0<br/>samples = 4<br/>value = [0, 0, 4, 0]<br/>class = mild>, fillcolor="#399de5"] ;
447 -> 448 ;
449 [label=<gini = 0.0<br/>samples = 1<br/>value = [0, 0, 0, 1]<br/>class = abnormal>, fillcolor="#d739e5"] ;
447 -> 449 ;
450 [label=<gini = 0.0<br/>samples = 6<br/>value = [0, 0, 0, 6]<br/>class = abnormal>, fillcolor="#d739e5"] ;
446 -> 450 ;
451 [label=<climbRate &le; 0.742<br/>gini = 0.165<br/>samples = 11<br/>value = [0, 1, 10, 0]<br/>class = mild>, fillcolor="#4da7e8"] ;
441 -> 451 ;
452 [label=<gini = 0.0<br/>samples = 10<br/>value = [0, 0, 10, 0]<br/>class = mild>, fillcolor="#399de5"] ;
451 -> 452 ;
453 [label=<gini = 0.0<br/>samples = 1<br/>value = [0, 1, 0, 0]<br/>class = noise>, fillcolor="#47e539"] ;
451 -> 453 ;
454 [label=<climbRate &le; 0.101<br/>gini = 0.367<br/>samples = 62<br/>value = [0, 0, 15, 47]<br/>class = abnormal>, fillcolor="#e478ed"] ;
440 -> 454 ;
455 [label=<yawRate &le; 2.711<br/>gini = 0.165<br/>samples = 44<br/>value = [0, 0, 4, 40]<br/>class = abnormal>, fillcolor="#db4de8"] ;
454 -> 455 ;
456 [label=<yawRate &le; -1.356<br/>gini = 0.091<br/>samples = 42<br/>value = [0, 0, 2, 40]<br/>class = abnormal>, fillcolor="#d943e6"] ;
455 -> 456 ;
457 [label=<rollRate &le; -0.88<br/>gini = 0.5<br/>samples = 4<br/>value = [0, 0, 2, 2]<br/>class = mild>, fillcolor="#ffffff"] ;
456 -> 457 ;
458 [label=<gini = 0.0<br/>samples = 2<br/>value = [0, 0, 2, 0]<br/>class = mild>, fillcolor="#399de5"] ;
457 -> 458 ;
459 [label=<gini = 0.0<br/>samples = 2<br/>value = [0, 0, 0, 2]<br/>class = abnormal>, fillcolor="#d739e5"] ;
457 -> 459 ;
460 [label=<gini = 0.0<br/>samples = 38<br/>value = [0, 0, 0, 38]<br/>class = abnormal>, fillcolor="#d739e5"] ;
456 -> 460 ;
461 [label=<gini = 0.0<br/>samples = 2<br/>value = [0, 0, 2, 0]<br/>class = mild>, fillcolor="#399de5"] ;
455 -> 461 ;
462 [label=<rollRate &le; -1.306<br/>gini = 0.475<br/>samples = 18<br/>value = [0, 0, 11, 7]<br/>class = mild>, fillcolor="#b7dbf6"] ;
454 -> 462 ;
463 [label=<gini = 0.0<br/>samples = 8<br/>value = [0, 0, 8, 0]<br/>class = mild>, fillcolor="#399de5"] ;
462 -> 463 ;
464 [label=<pitch &le; -0.694<br/>gini = 0.42<br/>samples = 10<br/>value = [0, 0, 3, 7]<br/>class = abnormal>, fillcolor="#e88ef0"] ;
462 -> 464 ;
465 [label=<gini = 0.0<br/>samples = 6<br/>value = [0, 0, 0, 6]<br/>class = abnormal>, fillcolor="#d739e5"] ;
464 -> 465 ;
466 [label=<yaw &le; 0.255<br/>gini = 0.375<br/>samples = 4<br/>value = [0, 0, 3, 1]<br/>class = mild>, fillcolor="#7bbeee"] ;
464 -> 466 ;
467 [label=<gini = 0.0<br/>samples = 3<br/>value = [0, 0, 3, 0]<br/>class = mild>, fillcolor="#399de5"] ;
466 -> 467 ;
468 [label=<gini = 0.0<br/>samples = 1<br/>value = [0, 0, 0, 1]<br/>class = abnormal>, fillcolor="#d739e5"] ;
466 -> 468 ;
469 [label=<rollRate &le; 0.008<br/>gini = 0.015<br/>samples = 26690<br/>value = [24, 111, 66, 26489]<br/>class = abnormal>, fillcolor="#d73ae5"] ;
1 -> 469 ;
470 [label=<gini = 0.0<br/>samples = 26471<br/>value = [0, 0, 0, 26471]<br/>class = abnormal>, fillcolor="#d739e5"] ;
469 -> 470 ;
471 [label=<yaw &le; -5.521<br/>gini = 0.634<br/>samples = 219<br/>value = [24, 111, 66, 18]<br/>class = noise>, fillcolor="#c9f7c5"] ;
469 -> 471 ;
472 [label=<pitch &le; 4.669<br/>gini = 0.519<br/>samples = 135<br/>value = [19, 87, 29, 0]<br/>class = noise>, fillcolor="#9af193"] ;
471 -> 472 ;
473 [label=<yawRate &le; -10.416<br/>gini = 0.494<br/>samples = 128<br/>value = [19, 86, 23, 0]<br/>class = noise>, fillcolor="#91ef88"] ;
472 -> 473 ;
474 [label=<throttlePct &le; -0.022<br/>gini = 0.541<br/>samples = 23<br/>value = [11, 11, 1, 0]<br/>class = normal>, fillcolor="#ffffff"] ;
473 -> 474 ;
475 [label=<pitchRate &le; -5.547<br/>gini = 0.439<br/>samples = 14<br/>value = [3, 10, 1, 0]<br/>class = noise>, fillcolor="#8aee81"] ;
474 -> 475 ;
476 [label=<pitch &le; -12.88<br/>gini = 0.48<br/>samples = 5<br/>value = [3, 2, 0, 0]<br/>class = normal>, fillcolor="#f6d5bd"] ;
475 -> 476 ;
477 [label=<gini = 0.0<br/>samples = 3<br/>value = [3, 0, 0, 0]<br/>class = normal>, fillcolor="#e58139"] ;
476 -> 477 ;
478 [label=<gini = 0.0<br/>samples = 2<br/>value = [0, 2, 0, 0]<br/>class = noise>, fillcolor="#47e539"] ;
476 -> 478 ;
479 [label=<rollRate &le; 8.079<br/>gini = 0.198<br/>samples = 9<br/>value = [0, 8, 1, 0]<br/>class = noise>, fillcolor="#5ee852"] ;
475 -> 479 ;
480 [label=<gini = 0.0<br/>samples = 8<br/>value = [0, 8, 0, 0]<br/>class = noise>, fillcolor="#47e539"] ;
479 -> 480 ;
481 [label=<gini = 0.0<br/>samples = 1<br/>value = [0, 0, 1, 0]<br/>class = mild>, fillcolor="#399de5"] ;
479 -> 481 ;
482 [label=<pitch &le; 1.773<br/>gini = 0.198<br/>samples = 9<br/>value = [8, 1, 0, 0]<br/>class = normal>, fillcolor="#e89152"] ;
474 -> 482 ;
483 [label=<gini = 0.0<br/>samples = 8<br/>value = [8, 0, 0, 0]<br/>class = normal>, fillcolor="#e58139"] ;
482 -> 483 ;
484 [label=<gini = 0.0<br/>samples = 1<br/>value = [0, 1, 0, 0]<br/>class = noise>, fillcolor="#47e539"] ;
482 -> 484 ;
485 [label=<roll &le; -5.256<br/>gini = 0.44<br/>samples = 105<br/>value = [8, 75, 22, 0]<br/>class = noise>, fillcolor="#8aee81"] ;
473 -> 485 ;
486 [label=<pitch &le; -4.457<br/>gini = 0.357<br/>samples = 66<br/>value = [7, 52, 7, 0]<br/>class = noise>, fillcolor="#73eb68"] ;
485 -> 486 ;
487 [label=<climbRate &le; 0.676<br/>gini = 0.265<br/>samples = 53<br/>value = [6, 45, 2, 0]<br/>class = noise>, fillcolor="#66e95b"] ;
486 -> 487 ;
488 [label=<climbRate &le; -1.209<br/>gini = 0.166<br/>samples = 45<br/>value = [2, 41, 2, 0]<br/>class = noise>, fillcolor="#58e74b"] ;
487 -> 488 ;
489 [label=<roll &le; -13.691<br/>gini = 0.444<br/>samples = 3<br/>value = [2, 1, 0, 0]<br/>class = normal>, fillcolor="#f2c09c"] ;
488 -> 489 ;
490 [label=<gini = 0.0<br/>samples = 1<br/>value = [0, 1, 0, 0]<br/>class = noise>, fillcolor="#47e539"] ;
489 -> 490 ;
491 [label=<gini = 0.0<br/>samples = 2<br/>value = [2, 0, 0, 0]<br/>class = normal>, fillcolor="#e58139"] ;
489 -> 491 ;
492 [label=<yawRate &le; 7.769<br/>gini = 0.091<br/>samples = 42<br/>value = [0, 40, 2, 0]<br/>class = noise>, fillcolor="#50e643"] ;
488 -> 492 ;
493 [label=<rollRate &le; 6.3<br/>gini = 0.048<br/>samples = 41<br/>value = [0, 40, 1, 0]<br/>class = noise>, fillcolor="#4ce63e"] ;
492 -> 493 ;
494 [label=<gini = 0.0<br/>samples = 40<br/>value = [0, 40, 0, 0]<br/>class = noise>, fillcolor="#47e539"] ;
493 -> 494 ;
495 [label=<gini = 0.0<br/>samples = 1<br/>value = [0, 0, 1, 0]<br/>class = mild>, fillcolor="#399de5"] ;
493 -> 495 ;
496 [label=<gini = 0.0<br/>samples = 1<br/>value = [0, 0, 1, 0]<br/>class = mild>, fillcolor="#399de5"] ;
492 -> 496 ;
497 [label=<pitchRate &le; -4.565<br/>gini = 0.5<br/>samples = 8<br/>value = [4, 4, 0, 0]<br/>class = normal>, fillcolor="#ffffff"] ;
487 -> 497 ;
498 [label=<gini = 0.0<br/>samples = 3<br/>value = [3, 0, 0, 0]<br/>class = normal>, fillcolor="#e58139"] ;
497 -> 498 ;
499 [label=<throttlePct &le; -0.475<br/>gini = 0.32<br/>samples = 5<br/>value = [1, 4, 0, 0]<br/>class = noise>, fillcolor="#75ec6a"] ;
497 -> 499 ;
500 [label=<gini = 0.0<br/>samples = 1<br/>value = [1, 0, 0, 0]<br/>class = normal>, fillcolor="#e58139"] ;
499 -> 500 ;
501 [label=<gini = 0.0<br/>samples = 4<br/>value = [0, 4, 0, 0]<br/>class = noise>, fillcolor="#47e539"] ;
499 -> 501 ;
502 [label=<climbRate &le; 0.368<br/>gini = 0.556<br/>samples = 13<br/>value = [1, 7, 5, 0]<br/>class = noise>, fillcolor="#d1f8ce"] ;
486 -> 502 ;
503 [label=<pitchRate &le; -4.805<br/>gini = 0.568<br/>samples = 9<br/>value = [1, 3, 5, 0]<br/>class = mild>, fillcolor="#bddef6"] ;
502 -> 503 ;
504 [label=<yawRate &le; -5.544<br/>gini = 0.444<br/>samples = 3<br/>value = [1, 2, 0, 0]<br/>class = noise>, fillcolor="#a3f29c"] ;
503 -> 504 ;
505 [label=<gini = 0.0<br/>samples = 1<br/>value = [1, 0, 0, 0]<br/>class = normal>, fillcolor="#e58139"] ;
504 -> 505 ;
506 [label=<gini = 0.0<br/>samples = 2<br/>value = [0, 2, 0, 0]<br/>class = noise>, fillcolor="#47e539"] ;
504 -> 506 ;
507 [label=<yawRate &le; -6.051<br/>gini = 0.278<br/>samples = 6<br/>value = [0, 1, 5, 0]<br/>class = mild>, fillcolor="#61b1ea"] ;
503 -> 507 ;
508 [label=<gini = 0.0<br/>samples = 1<br/>value = [0, 1, 0, 0]<br/>class = noise>, fillcolor="#47e539"] ;
507 -> 508 ;
509 [label=<gini = 0.0<br/>samples = 5<br/>value = [0, 0, 5, 0]<br/>class = mild>, fillcolor="#399de5"] ;
507 -> 509 ;
510 [label=<gini = 0.0<br/>samples = 4<br/>value = [0, 4, 0, 0]<br/>class = noise>, fillcolor="#47e539"] ;
502 -> 510 ;
511 [label=<pitchRate &le; -5.691<br/>gini = 0.504<br/>samples = 39<br/>value = [1, 23, 15, 0]<br/>class = noise>, fillcolor="#c2f6bd"] ;
485 -> 511 ;
512 [label=<roll &le; -4.565<br/>gini = 0.368<br/>samples = 22<br/>value = [1, 17, 4, 0]<br/>class = noise>, fillcolor="#7aec70"] ;
511 -> 512 ;
513 [label=<gini = 0.0<br/>samples = 2<br/>value = [0, 0, 2, 0]<br/>class = mild>, fillcolor="#399de5"] ;
512 -> 513 ;
514 [label=<climbRate &le; 1.876<br/>gini = 0.265<br/>samples = 20<br/>value = [1, 17, 2, 0]<br/>class = noise>, fillcolor="#66e95a"] ;
512 -> 514 ;
515 [label=<throttlePct &le; 0.096<br/>gini = 0.188<br/>samples = 19<br/>value = [0, 17, 2, 0]<br/>class = noise>, fillcolor="#5de850"] ;
514 -> 515 ;
516 [label=<rollRate &le; 5.063<br/>gini = 0.105<br/>samples = 18<br/>value = [0, 17, 1, 0]<br/>class = noise>, fillcolor="#52e745"] ;
515 -> 516 ;
517 [label=<gini = 0.0<br/>samples = 16<br/>value = [0, 16, 0, 0]<br/>class = noise>, fillcolor="#47e539"] ;
516 -> 517 ;
518 [label=<climbRate &le; 0.189<br/>gini = 0.5<br/>samples = 2<br/>value = [0, 1, 1, 0]<br/>class = noise>, fillcolor="#ffffff"] ;
516 -> 518 ;
519 [label=<gini = 0.0<br/>samples = 1<br/>value = [0, 1, 0, 0]<br/>class = noise>, fillcolor="#47e539"] ;
518 -> 519 ;
520 [label=<gini = 0.0<br/>samples = 1<br/>value = [0, 0, 1, 0]<br/>class = mild>, fillcolor="#399de5"] ;
518 -> 520 ;
521 [label=<gini = 0.0<br/>samples = 1<br/>value = [0, 0, 1, 0]<br/>class = mild>, fillcolor="#399de5"] ;
515 -> 521 ;
522 [label=<gini = 0.0<br/>samples = 1<br/>value = [1, 0, 0, 0]<br/>class = normal>, fillcolor="#e58139"] ;
514 -> 522 ;
523 [label=<climbRate &le; 0.486<br/>gini = 0.457<br/>samples = 17<br/>value = [0, 6, 11, 0]<br/>class = mild>, fillcolor="#a5d2f3"] ;
511 -> 523 ;
524 [label=<roll &le; -3.995<br/>gini = 0.337<br/>samples = 14<br/>value = [0, 3, 11, 0]<br/>class = mild>, fillcolor="#6fb8ec"] ;
523 -> 524 ;
525 [label=<gini = 0.0<br/>samples = 1<br/>value = [0, 1, 0, 0]<br/>class = noise>, fillcolor="#47e539"] ;
524 -> 525 ;
526 [label=<climbRate &le; -0.729<br/>gini = 0.26<br/>samples = 13<br/>value = [0, 2, 11, 0]<br/>class = mild>, fillcolor="#5dafea"] ;
524 -> 526 ;
527 [label=<gini = 0.0<br/>samples = 1<br/>value = [0, 1, 0, 0]<br/>class = noise>, fillcolor="#47e539"] ;
526 -> 527 ;
528 [label=<pitch &le; -20.714<br/>gini = 0.153<br/>samples = 12<br/>value = [0, 1, 11, 0]<br/>class = mild>, fillcolor="#4ba6e7"] ;
526 -> 528 ;
529 [label=<roll &le; 5.674<br/>gini = 0.5<br/>samples = 2<br/>value = [0, 1, 1, 0]<br/>class = noise>, fillcolor="#ffffff"] ;
528 -> 529 ;
530 [label=<gini = 0.0<br/>samples = 1<br/>value = [0, 1, 0, 0]<br/>class = noise>, fillcolor="#47e539"] ;
529 -> 530 ;
531 [label=<gini = 0.0<br/>samples = 1<br/>value = [0, 0, 1, 0]<br/>class = mild>, fillcolor="#399de5"] ;
529 -> 531 ;
532 [label=<gini = 0.0<br/>samples = 10<br/>value = [0, 0, 10, 0]<br/>class = mild>, fillcolor="#399de5"] ;
528 -> 532 ;
533 [label=<gini = 0.0<br/>samples = 3<br/>value = [0, 3, 0, 0]<br/>class = noise>, fillcolor="#47e539"] ;
523 -> 533 ;
534 [label=<throttlePct &le; 0.06<br/>gini = 0.245<br/>samples = 7<br/>value = [0, 1, 6, 0]<br/>class = mild>, fillcolor="#5aade9"] ;
472 -> 534 ;
535 [label=<gini = 0.0<br/>samples = 6<br/>value = [0, 0, 6, 0]<br/>class = mild>, fillcolor="#399de5"] ;
534 -> 535 ;
536 [label=<gini = 0.0<br/>samples = 1<br/>value = [0, 1, 0, 0]<br/>class = noise>, fillcolor="#47e539"] ;
534 -> 536 ;
537 [label=<pitchRate &le; -3.841<br/>gini = 0.675<br/>samples = 84<br/>value = [5, 24, 37, 18]<br/>class = mild>, fillcolor="#d4eaf9"] ;
471 -> 537 ;
538 [label=<climbRate &le; 1.089<br/>gini = 0.587<br/>samples = 34<br/>value = [4, 19, 10, 1]<br/>class = noise>, fillcolor="#baf5b5"] ;
537 -> 538 ;
539 [label=<pitch &le; 1.811<br/>gini = 0.527<br/>samples = 30<br/>value = [1, 18, 10, 1]<br/>class = noise>, fillcolor="#b5f5b0"] ;
538 -> 539 ;
540 [label=<throttlePct &le; -0.147<br/>gini = 0.486<br/>samples = 27<br/>value = [1, 18, 7, 1]<br/>class = noise>, fillcolor="#9af192"] ;
539 -> 540 ;
541 [label=<pitchRate &le; -6.057<br/>gini = 0.58<br/>samples = 10<br/>value = [1, 4, 5, 0]<br/>class = mild>, fillcolor="#deeffb"] ;
540 -> 541 ;
542 [label=<yaw &le; 5.802<br/>gini = 0.32<br/>samples = 5<br/>value = [1, 4, 0, 0]<br/>class = noise>, fillcolor="#75ec6a"] ;
541 -> 542 ;
543 [label=<gini = 0.0<br/>samples = 4<br/>value = [0, 4, 0, 0]<br/>class = noise>, fillcolor="#47e539"] ;
542 -> 543 ;
544 [label=<gini = 0.0<br/>samples = 1<br/>value = [1, 0, 0, 0]<br/>class = normal>, fillcolor="#e58139"] ;
542 -> 544 ;
545 [label=<gini = 0.0<br/>samples = 5<br/>value = [0, 0, 5, 0]<br/>class = mild>, fillcolor="#399de5"] ;
541 -> 545 ;
546 [label=<yaw &le; 13.888<br/>gini = 0.304<br/>samples = 17<br/>value = [0, 14, 2, 1]<br/>class = noise>, fillcolor="#6cea61"] ;
540 -> 546 ;
547 [label=<rollRate &le; 0.275<br/>gini = 0.219<br/>samples = 16<br/>value = [0, 14, 2, 0]<br/>class = noise>, fillcolor="#61e955"] ;
546 -> 547 ;
548 [label=<gini = 0.0<br/>samples = 1<br/>value = [0, 0, 1, 0]<br/>class = mild>, fillcolor="#399de5"] ;
547 -> 548 ;
549 [label=<yawRate &le; 0.263<br/>gini = 0.124<br/>samples = 15<br/>value = [0, 14, 1, 0]<br/>class = noise>, fillcolor="#54e747"] ;
547 -> 549 ;
550 [label=<gini = 0.0<br/>samples = 12<br/>value = [0, 12, 0, 0]<br/>class = noise>, fillcolor="#47e539"] ;
549 -> 550 ;
551 [label=<climbRate &le; -0.113<br/>gini = 0.444<br/>samples = 3<br/>value = [0, 2, 1, 0]<br/>class = noise>, fillcolor="#a3f29c"] ;
549 -> 551 ;
552 [label=<gini = 0.0<br/>samples = 1<br/>value = [0, 0, 1, 0]<br/>class = mild>, fillcolor="#399de5"] ;
551 -> 552 ;
553 [label=<gini = 0.0<br/>samples = 2<br/>value = [0, 2, 0, 0]<br/>class = noise>, fillcolor="#47e539"] ;
551 -> 553 ;
554 [label=<gini = 0.0<br/>samples = 1<br/>value = [0, 0, 0, 1]<br/>class = abnormal>, fillcolor="#d739e5"] ;
546 -> 554 ;
555 [label=<gini = 0.0<br/>samples = 3<br/>value = [0, 0, 3, 0]<br/>class = mild>, fillcolor="#399de5"] ;
539 -> 555 ;
556 [label=<pitch &le; 4.284<br/>gini = 0.375<br/>samples = 4<br/>value = [3, 1, 0, 0]<br/>class = normal>, fillcolor="#eeab7b"] ;
538 -> 556 ;
557 [label=<gini = 0.0<br/>samples = 3<br/>value = [3, 0, 0, 0]<br/>class = normal>, fillcolor="#e58139"] ;
556 -> 557 ;
558 [label=<gini = 0.0<br/>samples = 1<br/>value = [0, 1, 0, 0]<br/>class = noise>, fillcolor="#47e539"] ;
556 -> 558 ;
559 [label=<pitch &le; -2.534<br/>gini = 0.582<br/>samples = 50<br/>value = [1, 5, 27, 17]<br/>class = mild>, fillcolor="#c3e1f7"] ;
537 -> 559 ;
560 [label=<climbRate &le; -0.663<br/>gini = 0.482<br/>samples = 19<br/>value = [1, 4, 13, 1]<br/>class = mild>, fillcolor="#88c4ef"] ;
559 -> 560 ;
561 [label=<gini = 0.0<br/>samples = 2<br/>value = [0, 2, 0, 0]<br/>class = noise>, fillcolor="#47e539"] ;
560 -> 561 ;
562 [label=<pitchRate &le; -2.105<br/>gini = 0.394<br/>samples = 17<br/>value = [1, 2, 13, 1]<br/>class = mild>, fillcolor="#6eb7ec"] ;
560 -> 562 ;
563 [label=<roll &le; 0.061<br/>gini = 0.444<br/>samples = 3<br/>value = [0, 2, 1, 0]<br/>class = noise>, fillcolor="#a3f29c"] ;
562 -> 563 ;
564 [label=<gini = 0.0<br/>samples = 2<br/>value = [0, 2, 0, 0]<br/>class = noise>, fillcolor="#47e539"] ;
563 -> 564 ;
565 [label=<gini = 0.0<br/>samples = 1<br/>value = [0, 0, 1, 0]<br/>class = mild>, fillcolor="#399de5"] ;
563 -> 565 ;
566 [label=<climbRate &le; 1.37<br/>gini = 0.255<br/>samples = 14<br/>value = [1, 0, 12, 1]<br/>class = mild>, fillcolor="#57ace9"] ;
562 -> 566 ;
567 [label=<yawRate &le; 3.051<br/>gini = 0.142<br/>samples = 13<br/>value = [0, 0, 12, 1]<br/>class = mild>, fillcolor="#49a5e7"] ;
566 -> 567 ;
568 [label=<gini = 0.0<br/>samples = 12<br/>value = [0, 0, 12, 0]<br/>class = mild>, fillcolor="#399de5"] ;
567 -> 568 ;
569 [label=<gini = 0.0<br/>samples = 1<br/>value = [0, 0, 0, 1]<br/>class = abnormal>, fillcolor="#d739e5"] ;
567 -> 569 ;
570 [label=<gini = 0.0<br/>samples = 1<br/>value = [1, 0, 0, 0]<br/>class = normal>, fillcolor="#e58139"] ;
566 -> 570 ;
571 [label=<rollRate &le; 0.403<br/>gini = 0.529<br/>samples = 31<br/>value = [0, 1, 14, 16]<br/>class = abnormal>, fillcolor="#fae8fc"] ;
559 -> 571 ;
572 [label=<climbRate &le; 0.002<br/>gini = 0.32<br/>samples = 10<br/>value = [0, 0, 8, 2]<br/>class = mild>, fillcolor="#6ab6ec"] ;
571 -> 572 ;
573 [label=<gini = 0.0<br/>samples = 2<br/>value = [0, 0, 0, 2]<br/>class = abnormal>, fillcolor="#d739e5"] ;
572 -> 573 ;
574 [label=<gini = 0.0<br/>samples = 8<br/>value = [0, 0, 8, 0]<br/>class = mild>, fillcolor="#399de5"] ;
572 -> 574 ;
575 [label=<climbRate &le; -0.382<br/>gini = 0.472<br/>samples = 21<br/>value = [0, 1, 6, 14]<br/>class = abnormal>, fillcolor="#ea95f1"] ;
571 -> 575 ;
576 [label=<gini = 0.0<br/>samples = 4<br/>value = [0, 0, 4, 0]<br/>class = mild>, fillcolor="#399de5"] ;
575 -> 576 ;
577 [label=<climbRate &le; 0.222<br/>gini = 0.304<br/>samples = 17<br/>value = [0, 1, 2, 14]<br/>class = abnormal>, fillcolor="#df61ea"] ;
575 -> 577 ;
578 [label=<yaw &le; -0.923<br/>gini = 0.124<br/>samples = 15<br/>value = [0, 0, 1, 14]<br/>class = abnormal>, fillcolor="#da47e7"] ;
577 -> 578 ;
579 [label=<yaw &le; -1.464<br/>gini = 0.444<br/>samples = 3<br/>value = [0, 0, 1, 2]<br/>class = abnormal>, fillcolor="#eb9cf2"] ;
578 -> 579 ;
580 [label=<gini = 0.0<br/>samples = 2<br/>value = [0, 0, 0, 2]<br/>class = abnormal>, fillcolor="#d739e5"] ;
579 -> 580 ;
581 [label=<gini = 0.0<br/>samples = 1<br/>value = [0, 0, 1, 0]<br/>class = mild>, fillcolor="#399de5"] ;
579 -> 581 ;
582 [label=<gini = 0.0<br/>samples = 12<br/>value = [0, 0, 0, 12]<br/>class = abnormal>, fillcolor="#d739e5"] ;
578 -> 582 ;
583 [label=<pitchRate &le; 1.435<br/>gini = 0.5<br/>samples = 2<br/>value = [0, 1, 1, 0]<br/>class = noise>, fillcolor="#ffffff"] ;
577 -> 583 ;
584 [label=<gini = 0.0<br/>samples = 1<br/>value = [0, 0, 1, 0]<br/>class = mild>, fillcolor="#399de5"] ;
583 -> 584 ;
585 [label=<gini = 0.0<br/>samples = 1<br/>value = [0, 1, 0, 0]<br/>class = noise>, fillcolor="#47e539"] ;
583 -> 585 ;
586 [label=<pitch &le; -3.472<br/>gini = 0.628<br/>samples = 19937<br/>value = [4179, 4960, 10265, 533]<br/>class = mild>, fillcolor="#b9dcf6"] ;
0 -> 586 [labeldistance=2.5, labelangle=-45, headlabel="False"] ;
587 [label=<pitchRate &le; -5.078<br/>gini = 0.537<br/>samples = 6543<br/>value = [3492, 2750, 292, 9]<br/>class = normal>, fillcolor="#fae6d8"] ;
586 -> 587 ;
588 [label=<yaw &le; -5.487<br/>gini = 0.442<br/>samples = 3178<br/>value = [2163, 978, 37, 0]<br/>class = normal>, fillcolor="#f1bb94"] ;
587 -> 588 ;
589 [label=<rollRate &le; -1.098<br/>gini = 0.34<br/>samples = 2026<br/>value = [1588, 432, 6, 0]<br/>class = normal>, fillcolor="#eca46f"] ;
588 -> 589 ;
590 [label=<yawRate &le; -3.039<br/>gini = 0.265<br/>samples = 1590<br/>value = [1340, 248, 2, 0]<br/>class = normal>, fillcolor="#ea985e"] ;
589 -> 590 ;
591 [label=<roll &le; 5.028<br/>gini = 0.149<br/>samples = 1027<br/>value = [944, 83, 0, 0]<br/>class = normal>, fillcolor="#e78c4a"] ;
590 -> 591 ;
592 [label=<pitch &le; -8.717<br/>gini = 0.104<br/>samples = 947<br/>value = [895, 52, 0, 0]<br/>class = normal>, fillcolor="#e78845"] ;
591 -> 592 ;
593 [label=<roll &le; -3.031<br/>gini = 0.039<br/>samples = 704<br/>value = [690, 14, 0, 0]<br/>class = normal>, fillcolor="#e6843d"] ;
592 -> 593 ;
594 [label=<throttlePct &le; 0.208<br/>gini = 0.014<br/>samples = 550<br/>value = [546, 4, 0, 0]<br/>class = normal>, fillcolor="#e5823a"] ;
593 -> 594 ;
595 [label=<throttlePct &le; 0.207<br/>gini = 0.153<br/>samples = 24<br/>value = [22, 2, 0, 0]<br/>class = normal>, fillcolor="#e78c4b"] ;
594 -> 595 ;
596 [label=<rollRate &le; -4.012<br/>gini = 0.083<br/>samples = 23<br/>value = [22, 1, 0, 0]<br/>class = normal>, fillcolor="#e68742"] ;
595 -> 596 ;
597 [label=<gini = 0.0<br/>samples = 20<br/>value = [20, 0, 0, 0]<br/>class = normal>, fillcolor="#e58139"] ;
596 -> 597 ;
598 [label=<pitch &le; -11.203<br/>gini = 0.444<br/>samples = 3<br/>value = [2, 1, 0, 0]<br/>class = normal>, fillcolor="#f2c09c"] ;
596 -> 598 ;
599 [label=<gini = 0.0<br/>samples = 2<br/>value = [2, 0, 0, 0]<br/>class = normal>, fillcolor="#e58139"] ;
598 -> 599 ;
600 [label=<gini = 0.0<br/>samples = 1<br/>value = [0, 1, 0, 0]<br/>class = noise>, fillcolor="#47e539"] ;
598 -> 600 ;
601 [label=<gini = 0.0<br/>samples = 1<br/>value = [0, 1, 0, 0]<br/>class = noise>, fillcolor="#47e539"] ;
595 -> 601 ;
602 [label=<yaw &le; -5.881<br/>gini = 0.008<br/>samples = 526<br/>value = [524, 2, 0, 0]<br/>class = normal>, fillcolor="#e5813a"] ;
594 -> 602 ;
603 [label=<yawRate &le; -3.708<br/>gini = 0.004<br/>samples = 519<br/>value = [518, 1, 0, 0]<br/>class = normal>, fillcolor="#e58139"] ;
602 -> 603 ;
604 [label=<gini = 0.0<br/>samples = 481<br/>value = [481, 0, 0, 0]<br/>class = normal>, fillcolor="#e58139"] ;
603 -> 604 ;
605 [label=<yawRate &le; -3.686<br/>gini = 0.051<br/>samples = 38<br/>value = [37, 1, 0, 0]<br/>class = normal>, fillcolor="#e6843e"] ;
603 -> 605 ;
606 [label=<gini = 0.0<br/>samples = 1<br/>value = [0, 1, 0, 0]<br/>class = noise>, fillcolor="#47e539"] ;
605 -> 606 ;
607 [label=<gini = 0.0<br/>samples = 37<br/>value = [37, 0, 0, 0]<br/>class = normal>, fillcolor="#e58139"] ;
605 -> 607 ;
608 [label=<yaw &le; -5.783<br/>gini = 0.245<br/>samples = 7<br/>value = [6, 1, 0, 0]<br/>class = normal>, fillcolor="#e9965a"] ;
602 -> 608 ;
609 [label=<gini = 0.0<br/>samples = 1<br/>value = [0, 1, 0, 0]<br/>class = noise>, fillcolor="#47e539"] ;
608 -> 609 ;
610 [label=<gini = 0.0<br/>samples = 6<br/>value = [6, 0, 0, 0]<br/>class = normal>, fillcolor="#e58139"] ;
608 -> 610 ;
611 [label=<rollRate &le; -6.08<br/>gini = 0.121<br/>samples = 154<br/>value = [144, 10, 0, 0]<br/>class = normal>, fillcolor="#e78a47"] ;
593 -> 611 ;
612 [label=<gini = 0.0<br/>samples = 91<br/>value = [91, 0, 0, 0]<br/>class = normal>, fillcolor="#e58139"] ;
611 -> 612 ;
613 [label=<yawRate &le; -4.468<br/>gini = 0.267<br/>samples = 63<br/>value = [53, 10, 0, 0]<br/>class = normal>, fillcolor="#ea995e"] ;
611 -> 613 ;
614 [label=<rollRate &le; -5.5<br/>gini = 0.142<br/>samples = 52<br/>value = [48, 4, 0, 0]<br/>class = normal>, fillcolor="#e78c49"] ;
613 -> 614 ;
615 [label=<throttlePct &le; 0.494<br/>gini = 0.49<br/>samples = 7<br/>value = [3, 4, 0, 0]<br/>class = noise>, fillcolor="#d1f8ce"] ;
614 -> 615 ;
616 [label=<gini = 0.0<br/>samples = 3<br/>value = [0, 3, 0, 0]<br/>class = noise>, fillcolor="#47e539"] ;
615 -> 616 ;
617 [label=<rollRate &le; -6.008<br/>gini = 0.375<br/>samples = 4<br/>value = [3, 1, 0, 0]<br/>class = normal>, fillcolor="#eeab7b"] ;
615 -> 617 ;
618 [label=<gini = 0.0<br/>samples = 1<br/>value = [0, 1, 0, 0]<br/>class = noise>, fillcolor="#47e539"] ;
617 -> 618 ;
619 [label=<gini = 0.0<br/>samples = 3<br/>value = [3, 0, 0, 0]<br/>class = normal>, fillcolor="#e58139"] ;
617 -> 619 ;
620 [label=<gini = 0.0<br/>samples = 45<br/>value = [45, 0, 0, 0]<br/>class = normal>, fillcolor="#e58139"] ;
614 -> 620 ;
621 [label=<yawRate &le; -3.475<br/>gini = 0.496<br/>samples = 11<br/>value = [5, 6, 0, 0]<br/>class = noise>, fillcolor="#e0fbde"] ;
613 -> 621 ;
622 [label=<throttlePct &le; 0.911<br/>gini = 0.375<br/>samples = 8<br/>value = [2, 6, 0, 0]<br/>class = noise>, fillcolor="#84ee7b"] ;
621 -> 622 ;
623 [label=<gini = 0.0<br/>samples = 5<br/>value = [0, 5, 0, 0]<br/>class = noise>, fillcolor="#47e539"] ;
622 -> 623 ;
624 [label=<rollRate &le; -3.607<br/>gini = 0.444<br/>samples = 3<br/>value = [2, 1, 0, 0]<br/>class = normal>, fillcolor="#f2c09c"] ;
622 -> 624 ;
625 [label=<gini = 0.0<br/>samples = 1<br/>value = [0, 1, 0, 0]<br/>class = noise>, fillcolor="#47e539"] ;
624 -> 625 ;
626 [label=<gini = 0.0<br/>samples = 2<br/>value = [2, 0, 0, 0]<br/>class = normal>, fillcolor="#e58139"] ;
624 -> 626 ;
627 [label=<gini = 0.0<br/>samples = 3<br/>value = [3, 0, 0, 0]<br/>class = normal>, fillcolor="#e58139"] ;
621 -> 627 ;
628 [label=<yaw &le; -11.529<br/>gini = 0.264<br/>samples = 243<br/>value = [205, 38, 0, 0]<br/>class = normal>, fillcolor="#ea985e"] ;
592 -> 628 ;
629 [label=<roll &le; -7.386<br/>gini = 0.087<br/>samples = 153<br/>value = [146, 7, 0, 0]<br/>class = normal>, fillcolor="#e68742"] ;
628 -> 629 ;
630 [label=<gini = 0.0<br/>samples = 105<br/>value = [105, 0, 0, 0]<br/>class = normal>, fillcolor="#e58139"] ;
629 -> 630 ;
631 [label=<rollRate &le; -3.745<br/>gini = 0.249<br/>samples = 48<br/>value = [41, 7, 0, 0]<br/>class = normal>, fillcolor="#e9975b"] ;
629 -> 631 ;
632 [label=<roll &le; -7.244<br/>gini = 0.1<br/>samples = 38<br/>value = [36, 2, 0, 0]<br/>class = normal>, fillcolor="#e68844"] ;
631 -> 632 ;
633 [label=<gini = 0.0<br/>samples = 1<br/>value = [0, 1, 0, 0]<br/>class = noise>, fillcolor="#47e539"] ;
632 -> 633 ;
634 [label=<roll &le; 2.255<br/>gini = 0.053<br/>samples = 37<br/>value = [36, 1, 0, 0]<br/>class = normal>, fillcolor="#e6843e"] ;
632 -> 634 ;
635 [label=<gini = 0.0<br/>samples = 34<br/>value = [34, 0, 0, 0]<br/>class = normal>, fillcolor="#e58139"] ;
634 -> 635 ;
636 [label=<yawRate &le; -7.425<br/>gini = 0.444<br/>samples = 3<br/>value = [2, 1, 0, 0]<br/>class = normal>, fillcolor="#f2c09c"] ;
634 -> 636 ;
637 [label=<gini = 0.0<br/>samples = 2<br/>value = [2, 0, 0, 0]<br/>class = normal>, fillcolor="#e58139"] ;
636 -> 637 ;
638 [label=<gini = 0.0<br/>samples = 1<br/>value = [0, 1, 0, 0]<br/>class = noise>, fillcolor="#47e539"] ;
636 -> 638 ;
639 [label=<yawRate &le; -8.521<br/>gini = 0.5<br/>samples = 10<br/>value = [5, 5, 0, 0]<br/>class = normal>, fillcolor="#ffffff"] ;
631 -> 639 ;
640 [label=<gini = 0.0<br/>samples = 4<br/>value = [4, 0, 0, 0]<br/>class = normal>, fillcolor="#e58139"] ;
639 -> 640 ;
641 [label=<rollRate &le; -1.963<br/>gini = 0.278<br/>samples = 6<br/>value = [1, 5, 0, 0]<br/>class = noise>, fillcolor="#6cea61"] ;
639 -> 641 ;
642 [label=<gini = 0.0<br/>samples = 5<br/>value = [0, 5, 0, 0]<br/>class = noise>, fillcolor="#47e539"] ;
641 -> 642 ;
643 [label=<gini = 0.0<br/>samples = 1<br/>value = [1, 0, 0, 0]<br/>class = normal>, fillcolor="#e58139"] ;
641 -> 643 ;
644 [label=<throttlePct &le; 0.936<br/>gini = 0.452<br/>samples = 90<br/>value = [59, 31, 0, 0]<br/>class = normal>, fillcolor="#f3c3a1"] ;
628 -> 644 ;
645 [label=<pitchRate &le; -9.441<br/>gini = 0.495<br/>samples = 51<br/>value = [23, 28, 0, 0]<br/>class = noise>, fillcolor="#defadc"] ;
644 -> 645 ;
646 [label=<rollRate &le; -2.405<br/>gini = 0.142<br/>samples = 13<br/>value = [12, 1, 0, 0]<br/>class = normal>, fillcolor="#e78c49"] ;
645 -> 646 ;
647 [label=<gini = 0.0<br/>samples = 12<br/>value = [12, 0, 0, 0]<br/>class = normal>, fillcolor="#e58139"] ;
646 -> 647 ;
648 [label=<gini = 0.0<br/>samples = 1<br/>value = [0, 1, 0, 0]<br/>class = noise>, fillcolor="#47e539"] ;
646 -> 648 ;
649 [label=<roll &le; -12.473<br/>gini = 0.411<br/>samples = 38<br/>value = [11, 27, 0, 0]<br/>class = noise>, fillcolor="#92f08a"] ;
645 -> 649 ;
650 [label=<pitchRate &le; -6.05<br/>gini = 0.375<br/>samples = 8<br/>value = [6, 2, 0, 0]<br/>class = normal>, fillcolor="#eeab7b"] ;
649 -> 650 ;
651 [label=<gini = 0.0<br/>samples = 5<br/>value = [5, 0, 0, 0]<br/>class = normal>, fillcolor="#e58139"] ;
650 -> 651 ;
652 [label=<yaw &le; -7.161<br/>gini = 0.444<br/>samples = 3<br/>value = [1, 2, 0, 0]<br/>class = noise>, fillcolor="#a3f29c"] ;
650 -> 652 ;
653 [label=<gini = 0.0<br/>samples = 1<br/>value = [1, 0, 0, 0]<br/>class = normal>, fillcolor="#e58139"] ;
652 -> 653 ;
654 [label=<gini = 0.0<br/>samples = 2<br/>value = [0, 2, 0, 0]<br/>class = noise>, fillcolor="#47e539"] ;
652 -> 654 ;
655 [label=<yaw &le; -10.471<br/>gini = 0.278<br/>samples = 30<br/>value = [5, 25, 0, 0]<br/>class = noise>, fillcolor="#6cea61"] ;
649 -> 655 ;
656 [label=<rollRate &le; -6.153<br/>gini = 0.494<br/>samples = 9<br/>value = [4, 5, 0, 0]<br/>class = noise>, fillcolor="#dafad7"] ;
655 -> 656 ;
657 [label=<yawRate &le; -5.121<br/>gini = 0.32<br/>samples = 5<br/>value = [4, 1, 0, 0]<br/>class = normal>, fillcolor="#eca06a"] ;
656 -> 657 ;
658 [label=<gini = 0.0<br/>samples = 4<br/>value = [4, 0, 0, 0]<br/>class = normal>, fillcolor="#e58139"] ;
657 -> 658 ;
659 [label=<gini = 0.0<br/>samples = 1<br/>value = [0, 1, 0, 0]<br/>class = noise>, fillcolor="#47e539"] ;
657 -> 659 ;
660 [label=<gini = 0.0<br/>samples = 4<br/>value = [0, 4, 0, 0]<br/>class = noise>, fillcolor="#47e539"] ;
656 -> 660 ;
661 [label=<pitch &le; -8.578<br/>gini = 0.091<br/>samples = 21<br/>value = [1, 20, 0, 0]<br/>class = noise>, fillcolor="#50e643"] ;
655 -> 661 ;
662 [label=<rollRate &le; -6.88<br/>gini = 0.444<br/>samples = 3<br/>value = [1, 2, 0, 0]<br/>class = noise>, fillcolor="#a3f29c"] ;
661 -> 662 ;
663 [label=<gini = 0.0<br/>samples = 1<br/>value = [1, 0, 0, 0]<br/>class = normal>, fillcolor="#e58139"] ;
662 -> 663 ;
664 [label=<gini = 0.0<br/>samples = 2<br/>value = [0, 2, 0, 0]<br/>class = noise>, fillcolor="#47e539"] ;
662 -> 664 ;
665 [label=<gini = 0.0<br/>samples = 18<br/>value = [0, 18, 0, 0]<br/>class = noise>, fillcolor="#47e539"] ;
661 -> 665 ;
666 [label=<pitchRate &le; -5.304<br/>gini = 0.142<br/>samples = 39<br/>value = [36, 3, 0, 0]<br/>class = normal>, fillcolor="#e78c49"] ;
644 -> 666 ;
667 [label=<pitch &le; -8.371<br/>gini = 0.1<br/>samples = 38<br/>value = [36, 2, 0, 0]<br/>class = normal>, fillcolor="#e68844"] ;
666 -> 667 ;
668 [label=<gini = 0.0<br/>samples = 1<br/>value = [0, 1, 0, 0]<br/>class = noise>, fillcolor="#47e539"] ;
667 -> 668 ;
669 [label=<yaw &le; -6.412<br/>gini = 0.053<br/>samples = 37<br/>value = [36, 1, 0, 0]<br/>class = normal>, fillcolor="#e6843e"] ;
667 -> 669 ;
670 [label=<gini = 0.0<br/>samples = 31<br/>value = [31, 0, 0, 0]<br/>class = normal>, fillcolor="#e58139"] ;
669 -> 670 ;
671 [label=<yaw &le; -6.12<br/>gini = 0.278<br/>samples = 6<br/>value = [5, 1, 0, 0]<br/>class = normal>, fillcolor="#ea9a61"] ;
669 -> 671 ;
672 [label=<gini = 0.0<br/>samples = 1<br/>value = [0, 1, 0, 0]<br/>class = noise>, fillcolor="#47e539"] ;
671 -> 672 ;
673 [label=<gini = 0.0<br/>samples = 5<br/>value = [5, 0, 0, 0]<br/>class = normal>, fillcolor="#e58139"] ;
671 -> 673 ;
674 [label=<gini = 0.0<br/>samples = 1<br/>value = [0, 1, 0, 0]<br/>class = noise>, fillcolor="#47e539"] ;
666 -> 674 ;
675 [label=<pitch &le; -8.008<br/>gini = 0.475<br/>samples = 80<br/>value = [49, 31, 0, 0]<br/>class = normal>, fillcolor="#f5d1b6"] ;
591 -> 675 ;
676 [label=<yawRate &le; -6.096<br/>gini = 0.415<br/>samples = 68<br/>value = [48, 20, 0, 0]<br/>class = normal>, fillcolor="#f0b58b"] ;
675 -> 676 ;
677 [label=<roll &le; 15.002<br/>gini = 0.278<br/>samples = 48<br/>value = [40, 8, 0, 0]<br/>class = normal>, fillcolor="#ea9a61"] ;
676 -> 677 ;
678 [label=<throttlePct &le; 0.708<br/>gini = 0.149<br/>samples = 37<br/>value = [34, 3, 0, 0]<br/>class = normal>, fillcolor="#e78c4a"] ;
677 -> 678 ;
679 [label=<pitch &le; -12.915<br/>gini = 0.375<br/>samples = 12<br/>value = [9, 3, 0, 0]<br/>class = normal>, fillcolor="#eeab7b"] ;
678 -> 679 ;
680 [label=<gini = 0.0<br/>samples = 6<br/>value = [6, 0, 0, 0]<br/>class = normal>, fillcolor="#e58139"] ;
679 -> 680 ;
681 [label=<pitch &le; -8.621<br/>gini = 0.5<br/>samples = 6<br/>value = [3, 3, 0, 0]<br/>class = normal>, fillcolor="#ffffff"] ;
679 -> 681 ;
682 [label=<pitchRate &le; -10.73<br/>gini = 0.375<br/>samples = 4<br/>value = [1, 3, 0, 0]<br/>class = noise>, fillcolor="#84ee7b"] ;
681 -> 682 ;
683 [label=<gini = 0.0<br/>samples = 1<br/>value = [1, 0, 0, 0]<br/>class = normal>, fillcolor="#e58139"] ;
682 -> 683 ;
684 [label=<gini = 0.0<br/>samples = 3<br/>value = [0, 3, 0, 0]<br/>class = noise>, fillcolor="#47e539"] ;
682 -> 684 ;
685 [label=<gini = 0.0<br/>samples = 2<br/>value = [2, 0, 0, 0]<br/>class = normal>, fillcolor="#e58139"] ;
681 -> 685 ;
686 [label=<gini = 0.0<br/>samples = 25<br/>value = [25, 0, 0, 0]<br/>class = normal>, fillcolor="#e58139"] ;
678 -> 686 ;
687 [label=<pitchRate &le; -8.865<br/>gini = 0.496<br/>samples = 11<br/>value = [6, 5, 0, 0]<br/>class = normal>, fillcolor="#fbeade"] ;
677 -> 687 ;
688 [label=<gini = 0.0<br/>samples = 5<br/>value = [5, 0, 0, 0]<br/>class = normal>, fillcolor="#e58139"] ;
687 -> 688 ;
689 [label=<throttlePct &le; 1.178<br/>gini = 0.278<br/>samples = 6<br/>value = [1, 5, 0, 0]<br/>class = noise>, fillcolor="#6cea61"] ;
687 -> 689 ;
690 [label=<gini = 0.0<br/>samples = 5<br/>value = [0, 5, 0, 0]<br/>class = noise>, fillcolor="#47e539"] ;
689 -> 690 ;
691 [label=<gini = 0.0<br/>samples = 1<br/>value = [1, 0, 0, 0]<br/>class = normal>, fillcolor="#e58139"] ;
689 -> 691 ;
692 [label=<pitch &le; -18.865<br/>gini = 0.48<br/>samples = 20<br/>value = [8, 12, 0, 0]<br/>class = noise>, fillcolor="#c2f6bd"] ;
676 -> 692 ;
693 [label=<yawRate &le; -4.981<br/>gini = 0.42<br/>samples = 10<br/>value = [7, 3, 0, 0]<br/>class = normal>, fillcolor="#f0b78e"] ;
692 -> 693 ;
694 [label=<gini = 0.0<br/>samples = 3<br/>value = [0, 3, 0, 0]<br/>class = noise>, fillcolor="#47e539"] ;
693 -> 694 ;
695 [label=<gini = 0.0<br/>samples = 7<br/>value = [7, 0, 0, 0]<br/>class = normal>, fillcolor="#e58139"] ;
693 -> 695 ;
696 [label=<yaw &le; -24.181<br/>gini = 0.18<br/>samples = 10<br/>value = [1, 9, 0, 0]<br/>class = noise>, fillcolor="#5be84f"] ;
692 -> 696 ;
697 [label=<gini = 0.0<br/>samples = 1<br/>value = [1, 0, 0, 0]<br/>class = normal>, fillcolor="#e58139"] ;
696 -> 697 ;
698 [label=<gini = 0.0<br/>samples = 9<br/>value = [0, 9, 0, 0]<br/>class = noise>, fillcolor="#47e539"] ;
696 -> 698 ;
699 [label=<throttlePct &le; 1.546<br/>gini = 0.153<br/>samples = 12<br/>value = [1, 11, 0, 0]<br/>class = noise>, fillcolor="#58e74b"] ;
675 -> 699 ;
700 [label=<gini = 0.0<br/>samples = 11<br/>value = [0, 11, 0, 0]<br/>class = noise>, fillcolor="#47e539"] ;
699 -> 700 ;
701 [label=<gini = 0.0<br/>samples = 1<br/>value = [1, 0, 0, 0]<br/>class = normal>, fillcolor="#e58139"] ;
699 -> 701 ;
702 [label=<roll &le; -8.177<br/>gini = 0.419<br/>samples = 563<br/>value = [396, 165, 2, 0]<br/>class = normal>, fillcolor="#f0b68c"] ;
590 -> 702 ;
703 [label=<pitch &le; -10.955<br/>gini = 0.276<br/>samples = 351<br/>value = [293, 58, 0, 0]<br/>class = normal>, fillcolor="#ea9a60"] ;
702 -> 703 ;
704 [label=<yawRate &le; 8.278<br/>gini = 0.137<br/>samples = 216<br/>value = [200, 16, 0, 0]<br/>class = normal>, fillcolor="#e78b49"] ;
703 -> 704 ;
705 [label=<roll &le; -8.528<br/>gini = 0.115<br/>samples = 213<br/>value = [200, 13, 0, 0]<br/>class = normal>, fillcolor="#e78946"] ;
704 -> 705 ;
706 [label=<rollRate &le; -5.265<br/>gini = 0.092<br/>samples = 207<br/>value = [197, 10, 0, 0]<br/>class = normal>, fillcolor="#e68743"] ;
705 -> 706 ;
707 [label=<pitchRate &le; -5.226<br/>gini = 0.016<br/>samples = 127<br/>value = [126, 1, 0, 0]<br/>class = normal>, fillcolor="#e5823b"] ;
706 -> 707 ;
708 [label=<gini = 0.0<br/>samples = 123<br/>value = [123, 0, 0, 0]<br/>class = normal>, fillcolor="#e58139"] ;
707 -> 708 ;
709 [label=<rollRate &le; -6.907<br/>gini = 0.375<br/>samples = 4<br/>value = [3, 1, 0, 0]<br/>class = normal>, fillcolor="#eeab7b"] ;
707 -> 709 ;
710 [label=<gini = 0.0<br/>samples = 3<br/>value = [3, 0, 0, 0]<br/>class = normal>, fillcolor="#e58139"] ;
709 -> 710 ;
711 [label=<gini = 0.0<br/>samples = 1<br/>value = [0, 1, 0, 0]<br/>class = noise>, fillcolor="#47e539"] ;
709 -> 711 ;
712 [label=<rollRate &le; -5.137<br/>gini = 0.2<br/>samples = 80<br/>value = [71, 9, 0, 0]<br/>class = normal>, fillcolor="#e89152"] ;
706 -> 712 ;
713 [label=<gini = 0.0<br/>samples = 3<br/>value = [0, 3, 0, 0]<br/>class = noise>, fillcolor="#47e539"] ;
712 -> 713 ;
714 [label=<roll &le; -13.536<br/>gini = 0.144<br/>samples = 77<br/>value = [71, 6, 0, 0]<br/>class = normal>, fillcolor="#e78c4a"] ;
712 -> 714 ;
715 [label=<gini = 0.0<br/>samples = 50<br/>value = [50, 0, 0, 0]<br/>class = normal>, fillcolor="#e58139"] ;
714 -> 715 ;
716 [label=<yaw &le; -13.763<br/>gini = 0.346<br/>samples = 27<br/>value = [21, 6, 0, 0]<br/>class = normal>, fillcolor="#eca572"] ;
714 -> 716 ;
717 [label=<pitchRate &le; -5.269<br/>gini = 0.091<br/>samples = 21<br/>value = [20, 1, 0, 0]<br/>class = normal>, fillcolor="#e68743"] ;
716 -> 717 ;
718 [label=<gini = 0.0<br/>samples = 20<br/>value = [20, 0, 0, 0]<br/>class = normal>, fillcolor="#e58139"] ;
717 -> 718 ;
719 [label=<gini = 0.0<br/>samples = 1<br/>value = [0, 1, 0, 0]<br/>class = noise>, fillcolor="#47e539"] ;
717 -> 719 ;
720 [label=<pitchRate &le; -10.264<br/>gini = 0.278<br/>samples = 6<br/>value = [1, 5, 0, 0]<br/>class = noise>, fillcolor="#6cea61"] ;
716 -> 720 ;
721 [label=<gini = 0.0<br/>samples = 1<br/>value = [1, 0, 0, 0]<br/>class = normal>, fillcolor="#e58139"] ;
720 -> 721 ;
722 [label=<gini = 0.0<br/>samples = 5<br/>value = [0, 5, 0, 0]<br/>class = noise>, fillcolor="#47e539"] ;
720 -> 722 ;
723 [label=<climbRate &le; 0.577<br/>gini = 0.5<br/>samples = 6<br/>value = [3, 3, 0, 0]<br/>class = normal>, fillcolor="#ffffff"] ;
705 -> 723 ;
724 [label=<climbRate &le; -0.433<br/>gini = 0.375<br/>samples = 4<br/>value = [1, 3, 0, 0]<br/>class = noise>, fillcolor="#84ee7b"] ;
723 -> 724 ;
725 [label=<gini = 0.0<br/>samples = 1<br/>value = [1, 0, 0, 0]<br/>class = normal>, fillcolor="#e58139"] ;
724 -> 725 ;
726 [label=<gini = 0.0<br/>samples = 3<br/>value = [0, 3, 0, 0]<br/>class = noise>, fillcolor="#47e539"] ;
724 -> 726 ;
727 [label=<gini = 0.0<br/>samples = 2<br/>value = [2, 0, 0, 0]<br/>class = normal>, fillcolor="#e58139"] ;
723 -> 727 ;
728 [label=<gini = 0.0<br/>samples = 3<br/>value = [0, 3, 0, 0]<br/>class = noise>, fillcolor="#47e539"] ;
704 -> 728 ;
729 [label=<pitchRate &le; -7.563<br/>gini = 0.429<br/>samples = 135<br/>value = [93, 42, 0, 0]<br/>class = normal>, fillcolor="#f1ba92"] ;
703 -> 729 ;
730 [label=<throttlePct &le; 0.248<br/>gini = 0.258<br/>samples = 79<br/>value = [67, 12, 0, 0]<br/>class = normal>, fillcolor="#ea985c"] ;
729 -> 730 ;
731 [label=<roll &le; -17.323<br/>gini = 0.375<br/>samples = 8<br/>value = [2, 6, 0, 0]<br/>class = noise>, fillcolor="#84ee7b"] ;
730 -> 731 ;
732 [label=<rollRate &le; -2.176<br/>gini = 0.444<br/>samples = 3<br/>value = [2, 1, 0, 0]<br/>class = normal>, fillcolor="#f2c09c"] ;
731 -> 732 ;
733 [label=<gini = 0.0<br/>samples = 2<br/>value = [2, 0, 0, 0]<br/>class = normal>, fillcolor="#e58139"] ;
732 -> 733 ;
734 [label=<gini = 0.0<br/>samples = 1<br/>value = [0, 1, 0, 0]<br/>class = noise>, fillcolor="#47e539"] ;
732 -> 734 ;
735 [label=<gini = 0.0<br/>samples = 5<br/>value = [0, 5, 0, 0]<br/>class = noise>, fillcolor="#47e539"] ;
731 -> 735 ;
736 [label=<rollRate &le; -1.881<br/>gini = 0.155<br/>samples = 71<br/>value = [65, 6, 0, 0]<br/>class = normal>, fillcolor="#e78d4b"] ;
730 -> 736 ;
737 [label=<rollRate &le; -5.343<br/>gini = 0.133<br/>samples = 70<br/>value = [65, 5, 0, 0]<br/>class = normal>, fillcolor="#e78b48"] ;
736 -> 737 ;
738 [label=<yaw &le; -7.34<br/>gini = 0.038<br/>samples = 52<br/>value = [51, 1, 0, 0]<br/>class = normal>, fillcolor="#e6833d"] ;
737 -> 738 ;
739 [label=<gini = 0.0<br/>samples = 47<br/>value = [47, 0, 0, 0]<br/>class = normal>, fillcolor="#e58139"] ;
738 -> 739 ;
740 [label=<roll &le; -10.916<br/>gini = 0.32<br/>samples = 5<br/>value = [4, 1, 0, 0]<br/>class = normal>, fillcolor="#eca06a"] ;
738 -> 740 ;
741 [label=<gini = 0.0<br/>samples = 4<br/>value = [4, 0, 0, 0]<br/>class = normal>, fillcolor="#e58139"] ;
740 -> 741 ;
742 [label=<gini = 0.0<br/>samples = 1<br/>value = [0, 1, 0, 0]<br/>class = noise>, fillcolor="#47e539"] ;
740 -> 742 ;
743 [label=<throttlePct &le; 0.611<br/>gini = 0.346<br/>samples = 18<br/>value = [14, 4, 0, 0]<br/>class = normal>, fillcolor="#eca572"] ;
737 -> 743 ;
